0.001979907152160357 0.0006046502666620129 0.004082831575832308 -0.013480147932653168 0.027692601072133394 0.0023297747368489522 -0.0031570015644998522 0.01806516612867779 -0.004082378722888945 0.015752875129742605 -0.007651259384604935 -0.0015978906479623004 -0.009470745826797376 -0.014514765875170338 -0.006372517114939345 0.004784971020642217 0.006587444355194665 0.00419668334600435 0.014955336485204933 0.00819996922111729 0.016595904631072807 -0.028004560166246212 -0.002669467560427697 0.010537074982533421 -0.002776402592945145 -0.004419460930687904 0.01663518612811529 0.014610167921313403 0.012960003812728058 -0.004642922789359301 0.0037504665123567096 0.001526623724980406 0.00990576122073021 0.010786412428044479 0.0025075568516809443 -0.014110206740688809 0.018178956522055114 0.0059812128032985514 -0.01134059019944495 -0.0330720346834368 -0.014833830041637793 -0.010131026961009143 0.014689625458201367 0.0008128572855287357 0.0018184068156623 -0.007859274114736244 0.0025314791143297645 -0.0006729763158609224 0.007577009163179519 0.0024020620619441073 0.011065571243933838 -0.0022377072466594466 -0.009894099654735033 0.0066643023637619715 -0.002739144627929922 -0.006430710570479319 0.01269616171237258 0.005324718639068681 -0.014151965415280828 -0.011273141004169668 0.007928105349864349 0.016571048701415195 0.005559494535759939 -0.001217278339719288 -0.003452438357644456 -0.005122081808698612 -0.023824865859582954 -0.01778227743312428 -0.020731511480907242 -0.016235133744933978 -0.018240027602030046 0.012491170159450064 -0.007584445116305498 -0.004633792679688915 0.0028455899708566676 -0.008524242275485167 -0.02558011008097461 0.0008544654662949947 0.0013383709946544317 -0.0002504379304658717 0.017106935285017246 -0.00770796624993955 -0.009121858884147066 0.0016000329413861276 -0.007027680845380785 -0.006634892971769033 -0.00877029470066448 -0.01589989534420234 0.030378307281138436 -0.005029528418897069 -0.006750317984543331 -0.011784021920229305 0.004390900799980468 -0.03825583663377278 -0.026574128167436 -0.03185965947666218 -0.03714066326584368 -0.046587557871864436 -0.029097864072910266 -0.0035690734550215962 -0.009754440882036945 -0.006590872581822821 -0.01531130874383489 -0.03368516985157474 -0.017676985710417207 -0.030235324887837898 0.00043750381121725434 -0.007488488841652095 -0.013144336264602078 -0.002979369207482174 -0.0010976189073505453 -0.004428975943143856 0.007590626103584867 0.008001751793008872 0.0009457297893860635 -0.01402534942112488 -0.009680489684424018 0.013540406156360454 -0.015156695043692948 -0.015882842676831682 0.009658098454373753 -0.031299248167834706 -0.03549394859823439 -0.054462854476693016 -0.08661041164496083 -0.10792652772706729 -0.0824278373254579 -0.0651488032683667 -0.04214376235141676 -0.037285261700068094 -0.010153468862869773 0.00530652331004265 -0.009661737224613403 -0.01980199710206426 -0.04806717023135172 -0.0263479726983479 -0.00728667919516086 -0.00799527997315444 6.0803390223411886e-05 0.00203583112450448 -0.0051561513102185335 0.004341588049773834 -0.00029677682395280253 0.005021600868158121 -0.019994933448377956 0.03286631862755394 0.009489703522897238 0.006204891364949694 -0.0061835099745476 -0.02795754486823807 -0.08458207338370587 -0.06590310127584834 -0.048879954611808454 -0.044948741373918494 -0.041024228921774424 0.0014431229743418028 0.016583097796990836 0.00067432800560845 -0.009059692359969479 0.004551700158005481 -0.020969588913491242 -0.026787621458684713 -0.032648852537557144 -0.05853061292408222 -0.03592704475903991 -0.007588442195758753 0.00892993891130384 0.017540071030018412 0.014953809230579231 0.021042144126605173 -0.011789063380196332 -0.015867232924071176 0.03170742745450313 0.07817384799912952 0.08783063586445598 0.022623997161120273 0.007336935599129449 -0.04805501657480712 -0.08096910871594586 -0.12018244825849292 -0.0898097404382382 -0.06298762838504685 -0.04165816294199003 0.016042025289624624 0.035959558027544025 0.044583685316631955 0.10229978328478644 0.09275315380218802 0.08582248015003943 0.07376424009627675 -0.030192844914993223 -0.08738077383149342 -0.03976259824391109 -0.012565489394063743 0.018410212012673285 -0.015259647940138137 0.013235119935318876 0.011787293600806763 -0.03147400962388506 0.005200324426402528 0.0816174282245085 0.1390175621766821 0.12304375780153716 0.051838298614368686 -0.00974537550375785 -0.07479759931613998 -0.0991957949368145 -0.1588979368318299 -0.1899965521863788 -0.21272077802202052 -0.1630816496940706 -0.102428225788623 -0.0019436223222405703 0.06661174528164078 0.17464221552317563 0.22792902457303396 0.2561202634329415 0.2108514215381391 0.0596196738607524 -0.10189120646886646 -0.11028740645949196 -0.07577249696490237 -0.001464853312859751 -0.013507302564127055 -0.005048021610916335 0.0020792581195144965 -0.007119168185415444 0.037615507540696994 0.16115178420951834 0.19222380723020474 0.1915394826618432 0.08295437750902107 -0.011525071531567574 -0.04876809630824866 -0.08742437522089218 -0.127627215155052 -0.16885490839137618 -0.1740934944324108 -0.1966812096682499 -0.1652689008634963 -0.06587198612680811 0.055777779682982365 0.17775755080419714 0.23069348363966666 0.3335871614696489 0.410325874970173 0.24489190174947148 -0.07567165347299272 -0.2129689866038698 -0.10463194473499796 -0.008158400347677189 -0.005375544006468842 0.00048431743857676654 0.010891415389485794 -0.022601663420663578 0.053912143026303205 0.24001993587329662 0.32100727437018456 0.25417897555571023 -0.025018601969100322 -0.07886180338115294 0.01498559043401011 0.026604852548931367 -0.0033554130786640764 -0.03403646831738142 0.006214117135690285 -0.02904659964935738 -0.044356671531479146 -0.014579918558777272 0.03790456669121146 0.09752993206860132 0.12374097478437297 0.19845616331472524 0.3651600463629324 0.3702846017205963 0.045956639950904855 -0.2461935791924739 -0.16779263324783822 -0.04533887100661385 0.00015693530147247223 -0.005106864036522865 -0.014125979919632563 -0.009393772595089441 0.12706163266431833 0.3414840492076959 0.4520333760344978 0.11137310660645482 -0.15432955389880965 -0.1321632029049139 0.057914696534958524 0.08009562246624756 0.03728928207019609 -0.002261755537943271 0.060881382053377044 0.11655974001550727 0.05683431207292873 0.06108123124187273 0.08919074214432654 0.008191297140119064 -0.04391281430491423 -0.07227852115090656 0.10141804317208805 0.2811238029853349 0.09267393727118291 -0.225362918107941 -0.19149282345949178 -0.02964950714970125 -0.01218791789079999 0.0011448312373416023 -0.007093305194377327 -0.014118285793009494 0.15558954348686663 0.36624175259790553 0.38009195585030403 -0.07002386380708542 -0.265784230398759 -0.06102239190880612 0.09315642607724124 0.006228583162943517 -0.11507116423617178 -0.09339349504238059 0.11849619848473822 0.22409576503012185 0.18064278171712336 0.07490948592300926 0.018301820333016864 -0.13096816894296945 -0.20299883855886375 -0.27919166526828665 -0.12903284578001073 0.14064303451038385 0.14963358868610868 -0.10719445740058864 -0.12947120289729963 -0.029301550474100355 -0.0049420776213252166 0.006386826177772 -0.00767245073177769 -0.014794011380931749 0.1477045344918124 0.41139774032792886 0.2352060446831883 -0.22381570734132805 -0.24334095240584375 0.0342574025676928 0.03358453723183506 -0.18884537162148965 -0.29306710557723176 -0.12334032812681195 0.1545708663534619 0.26441017275117396 0.20284223879733643 0.13837874166554034 -0.038628537572670506 -0.17430677433882807 -0.2069622824189671 -0.21055873899531277 -0.06792599559011564 0.1965272195616413 0.2506851217465326 -0.05050249338315127 -0.1357729170867101 -0.041658468658160724 -0.00852036213019212 0.003803245969836344 0.008860364146750616 -0.012280291760074636 0.1573112990780249 0.407980388604976 0.19667208130767705 -0.14519027626141048 -0.13506831388806356 0.0160062635879085 -0.05892577206469403 -0.29077534950681877 -0.2918098406604066 -0.09662783935929306 0.1622271325023312 0.2013685469791088 0.1534107724336489 0.08200061638473423 -0.0019694635738414148 -0.07045528120281325 -0.02898226213414507 0.033226162368053 0.2154554865247641 0.3955227581782899 0.33513019817190487 -0.08623998089906214 -0.19730264287879903 -0.08944478623436826 0.0048995191017376875 0.0106266756009231 -0.0008023433148249682 -0.030752399961321175 0.11803151483972366 0.35104470677869165 0.30349324778770315 0.10959297661664319 0.09733283374249592 0.11580330986546458 -0.04276276360683422 -0.21549570104719862 -0.16939354347588714 0.035608728656588026 0.12310834583944444 0.0950676809983756 0.07449996374188299 0.15026621106323457 0.13476915957058508 0.1627586127526506 0.17211588740210296 0.23664380105514676 0.3037704497702718 0.40281627641267237 0.2357256462305091 -0.17342456577205803 -0.23285638133782258 -0.07627386811708702 -0.010468544541434952 0.00670447045351833 0.0012421188763441864 -0.04000021261380553 0.06985571508302524 0.23640949872045816 0.3713488218720518 0.3775914615921928 0.3431919528591308 0.17864221217705586 -0.019090202901261923 -0.0036063819792514704 0.07932500533951026 0.15499965201559746 0.11882853207872769 0.042020823476720495 0.13122472728549497 0.19520502869992373 0.19255620541945917 0.17328743994141052 0.13890753203739312 0.2666751292039489 0.2569278132292161 0.26918557614774924 0.07491544928779709 -0.21005015040841446 -0.19385130242153345 -0.06155370549472931 -0.022342193929859745 0.016282847918914704 -0.010467402168923447 -0.031634923205773234 -0.07575786832809916 0.12018369690810311 0.33172139341492535 0.41107731075621046 0.401899140110882 0.2361618278679328 0.1131764629771026 0.11984790984918266 0.20467845539815 0.15093048860639663 0.08537577378897424 0.042911357013991146 0.07634275449811162 0.024272247491620238 -0.00040212958762869065 0.014150285616276393 0.0549286953034911 0.14742250497698742 0.16402806446470197 0.21774045460497857 0.06227316041120562 -0.09855665412318648 -0.1453836957517537 -0.06486313070803097 -0.021249021617205318 -0.004591470742508365 0.006982415495562127 -0.012766644676087175 -0.13933462202268035 -0.06453477768027106 0.07582780813580052 0.1799983257057205 0.20371362959887654 0.2049578337152211 0.19665093740212533 0.24728415124674463 0.25903397311466236 0.1675487895091939 0.03059703377417651 -0.035913811676660586 -0.028881168770178732 -0.010507666846493095 -0.013509100185489774 -0.017208169257732477 -0.03089981476056839 0.07097371150853138 0.0992727737902999 0.11119906917443598 0.09081539469989972 -0.05922258356538869 -0.1319528213526635 -0.05018944422248311 0.005072763150438358 -0.01346359969883917 0.00637751724248949 -0.03924215811639146 -0.1420283805151989 -0.16351446609491574 -0.16060109086605157 -0.12194797710310937 -0.009619250752928613 0.13245368930654688 0.2328900400526103 0.2817959338368166 0.23649351027858245 0.1102454552416181 -0.02262875100680904 -0.1456161256181839 -0.08846839314549138 0.04609831931646229 0.09267011966918633 0.0152684222146873 -0.019881992936541137 0.00239450869845124 0.052868204199035984 0.12903027340315476 0.10580738833227324 -0.065157875235262 -0.1299981968946889 -0.053521654223148384 -0.01306186650404876 -0.008766289172638036 0.017337342952317664 -0.02517879264883603 -0.1572579922641279 -0.173961571048612 -0.2332433234844739 -0.2600451790668775 -0.12960543766551558 0.11206731074957414 0.24077032833826464 0.2976695700315171 0.22234328693075042 0.13467054009689555 -0.030234061745289167 -0.06172211292549987 -0.007313432799618795 0.06925276213850658 0.08489545054275578 0.0010113988563884811 -0.0028080930267886 -0.006936803525135834 0.11021260611016058 0.1679183978633064 0.09060866628801224 -0.03965636729856136 -0.08292162067014194 -0.026045632375647287 -0.00222906520808415 0.012111273613353613 0.009060819480556755 -0.006024380118284368 -0.11171453583223978 -0.14454333761024216 -0.19230390951867515 -0.21767225868381052 -0.13995886388998766 0.0013270277481881264 0.09512555467503496 0.1313830845936734 0.12849713496454782 0.057037649571968385 0.029444824326288203 0.02386442502360066 0.004317357254703514 0.05004105756079197 0.09381702143046308 0.040401963470347 0.016800488636997405 0.06293075161896876 0.10085376685511771 0.1271583791506412 0.060604078039170534 -0.024307444480801303 -0.053949609039478 -0.015996350231296527 -0.0017067271107216331 -0.0012953363666928534 0.007849207761032748 -0.014234235566528544 -0.05143335322263557 -0.09678743415412214 -0.11766516346078593 -0.14016608248999674 -0.1075661756993516 -0.03282744644499262 -0.043929411609753166 -0.007937727515483902 -0.011958968341973238 -0.022575582662747055 -0.03100014242490363 -0.07010183787447884 -0.041317840782766194 -0.001587411431452376 0.014514961650250268 -0.00030095300952209667 0.026834815155866755 0.05591022296669524 0.08633831607753926 0.11134267957496637 0.06327389382871011 0.016822535971993253 -0.012125960472179174 -0.008813143188509912 0.00045802805528682967 0.005469944723469743 -0.004625419276667325 0.005651783057865115 -0.05774133163520797 -0.0702568558034267 -0.07875614087186338 -0.0868224557639697 -0.09070100872740723 -0.07052954919489773 -0.06098306152077695 -0.0534497366682792 -0.05719631078437082 -0.07454761144721633 -0.07811808700899915 -0.10220944538419714 -0.07741733827377632 -0.07359710347221125 -0.09189727592770187 -0.0713356210685545 -0.07060217185913599 0.00416779470227208 0.08024872087561372 0.10228158973844494 0.05755607888266431 0.005143422034473616 0.007586049374936218 -0.008389791814963233 -0.006000096033699623 -0.012939367586322288 -0.00813643264996388 -0.013035201342483458 -0.04286600871901963 -0.03989388841702593 -0.060413273979700595 -0.05520941535103112 -0.06037119282488192 -0.03761075203284627 -0.08861083658278422 -0.04484413976456253 -0.04337557333134738 -0.05104166631820344 -0.06404493311274848 -0.07331774266626917 -0.05303635847078892 -0.04393614204778546 -0.02122624099232294 -0.012446474419097176 -0.018798904701105276 0.023362481483112877 0.10221624410804594 0.04921899466820242 0.03225695497651268 -0.009885585572465643 -0.011783320744130178 -0.0032908918913677034 -0.00624828802679993 8.506334920041214e-05 -0.010413938319263476 0.006410241615895622 0.0081130735838928 -0.0233283147235101 -0.044082398737187264 -0.04259785386504265 -0.05736528827024734 -0.04116157725941408 -0.05147945322055467 -0.04930452132618943 -0.06566462484885491 -0.07160356798058465 -0.06196657202458568 -0.08652114955119862 -0.05609674070325934 -0.011172379393279351 -0.00782205302102285 -0.0024174095293351505 0.0045808651581020765 -0.003433864541273125 0.03261630458860803 0.021085681527239056 -0.001530809508847824 -0.007537356184054498 0.0071534056546890224 -0.0038270799679253936 0.008801107394579262 -0.0035699616541480274 -0.010703961535532052 -0.013834378894427582 0.0027911047421103315 0.009127059099687694 0.003918226188851323 -0.012167134733587312 -0.031097708746864263 -0.023527845850791308 -0.009133443781780394 -0.014815921360535465 -0.017983876658304483 -0.0172331141345551 -0.04626374532156647 -0.03631704012897336 -0.027033638000474286 0.008865364469637056 -0.016586170937878914 -0.011418520443855919 -0.006519212824499596 -0.009306275857959337 0.028297582992490633 -0.009915539450160963 -0.009128908641250802 0.0005412145532103705 -0.009844396446546146 -0.015188198516381353 0.00630952817189926 0.01766281604868986 -0.002404454465199918 -0.010393880949811427 -0.005108295315846766 -0.021471348679462352 0.007052575055820551 -0.00661437662543122 -0.015143523790093781 -0.012810415289323102 -0.016323187034137106 -0.014547852146584528 -0.00037071767263962164 -0.007455814785243805 0.02294672916566493 -0.007435739790203444 0.0013600970983224327 0.003500213440393173 -0.003473342965848823 0.00694441012286442 0.013223941503084705 -0.02060091215754847 -0.009602619702651076 0.004563388433177243 0.0043454632759608765 0.018588161414120712 -0.013094922110103357 -0.006243367328255936 0.02138110183975455 -0.016279824505870226 0.006033979183861812 0.012532416165396415 0.02926990642193092 0.004037263196568899 0.010881403368573765 0.003707796941470183 0.0018219696316454622 -0.011769837388286972 -0.0041712563600082315 0.004097444125910054 -0.0001659362288959698 -0.008013978723010233 0.009234890212186637 0.0008134623446739336 -0.00898066950425821 0.00737253323994295 -0.005998280129843121 -0.012805662521370461 0.0016760202148148116 -0.003430919121586808 0.005681006274595114 -0.0021444059800680686 0.004097874030740036 0.0036047432662941114 0.005111870567549576 0.004660506891501751 0.0011294586346636856
-0.008439295884907442 -0.02153036115078504 -0.004941954671365162 0.003493937548741774 -0.012819540552733124 0.0029314257042965114 -0.002735320596595915 0.011954066737163664 0.008016993745270116 0.0009509215090017541 -0.0005149717760274482 -0.011599961286257685 -0.0058223092223527 0.002741091175265624 0.0028093373674312992 -0.00939893275333258 0.0025030195328375666 0.0007870795125683708 0.006188984251349599 -0.0007834934192416372 -0.0032122112772880575 0.022182912120884933 0.00214570589041669 0.011132441416337529 0.010299805568028763 -0.01540119768432431 -0.03044437090477471 -0.006713211013318508 0.00979545294757573 -0.01562764072741684 -0.0031693784016075073 0.004049351448011001 0.005357443486217294 -0.002651290338121418 0.018869402030588088 0.00889368118959509 -0.003949756176674299 -0.010212267591340736 0.004160261225763978 -0.0050930975177000464 -0.004214624086624859 -0.009956258494870581 -0.00912838789013674 -0.009755808561360333 0.004222416943966599 0.005987735814425004 -0.008714425655185773 0.004244411524983134 -0.01783651224991036 0.0009427777056221872 -0.006643873546663856 0.004360590222073366 -0.012225672482176824 -0.00027331176647525196 0.004755888798639216 0.013619146220333207 0.0010719478744015364 0.005588676392014908 -0.023799466605100666 -0.0018515352974103724 -0.010218351784807535 -0.029491664537819973 0.008144355792584691 -0.004821055579231414 -0.010532428326001911 -0.021806775203245286 0.0005467469193080626 -0.023538079191259227 0.00292408500497503 0.003569684489615527 -0.006298239663218344 -0.012926223957687694 0.012130047904156208 -0.022792213424266097 -0.010449624702023217 -0.008097991837880139 0.0051470646482531515 0.009470422947383405 0.011571928233999473 0.008000668524602593 -0.005087508494145835 0.0005683897392246965 0.001659980680917382 0.003195767934942259 2.337843867784094e-05 0.009205452078511075 -0.0024119435549170916 -0.00784260008026357 0.008584382537313676 0.003906031330119018 -0.004163858935685663 -0.0053172811905106325 -0.009064819595763069 0.016224469355738708 0.005719500219162231 -0.014366492160511838 0.007346660361169885 0.021810461824355726 -0.003923170598298559 -0.020766086917114228 -0.005367109614636008 -0.003473870559944343 -0.020502159437442626 -0.00118360643624703 0.010941783123476526 0.017898500748954806 -0.007148433462272308 0.012343220533508531 0.013215178362102491 -0.00742916832827268 0.0017268486560154124 0.011208910633277579 0.01033767441936522 -0.00375193283527708 -0.0018911120032628407 0.0026902677914685848 -0.014109676889897324 -0.0021939659610502376 -0.004102374391156785 -0.002843413845672135 -0.0005556178903939204 -0.013325745574688576 -0.00971326823234028 0.006420055952382741 -0.0027364692193042094 0.01173464301561109 0.005403989683236469 0.003590526707972126 0.0006793017731727963 0.0074717805514605724 -0.0037425063761924375 -0.0012730793038972293 -0.0014153121127713495 -0.0035020217256993306 0.01261159662082625 0.0033062978948958568 0.0013183388272387379 -0.014498437150902774 -0.012343916800544733 0.019295481161146037 -0.011348474892882914 0.006749489714855429 0.006522712774228937 -0.00824714511616214 -0.00781891707597134 0.008013784062055888 -0.01345549181120503 0.0033304323479962056 -0.010390845314220305 0.008498657173479704 0.00578262323986325 0.004918757780626084 -0.006224775402791397 0.006179517372108837 0.0008001236294243431 -0.0034849005302355508 -0.010703648858295826 -0.0025972221001360155 -0.003919921813370297 -0.015122974494263012 -0.009181579502283734 0.008133497022679034 -0.015985571794070327 -0.018683343294328126 -0.010105576947812786 0.008418104590704063 0.0006690485662677162 0.01251954826389359 0.006649109251312842 -0.018640169648566615 0.000714157498532199 0.005214437249465438 0.012793890343704657 -0.0026030048962843414 -0.007468239226218973 -0.010929292031456504 0.007195869012979384 -0.019686415438589955 -0.013305384584653425 -0.0028470041888241484 -0.0021680350290564747 0.0025337922362054267 0.005547488306181108 0.009108605580794432 0.012307725708131757 -0.005739643280285728 -0.013244905659128668 -0.006378228548238699 -0.01083172816399539 0.015519078005053583 -0.006101902097713205 0.007322983378309594 0.011084111798200973 -0.004857658261757937 -0.007140975333746343 -0.017672099595314752 -0.002390938250150836 0.005705169571692896 0.0009152087760445082 -0.0014724079923158742 -0.016375523155572565 -0.002705376088681622 -0.012360057260469704 0.00934896325499126 -0.000574324355623262 0.014910084176875723 -0.015705962860373394 0.00432285847760702 0.006864301908844231 -0.00950449648193654 -0.015817205074665008 0.0001746448864105198 -0.004747710404805439 -0.004662233774806883 -0.0029786856345955 0.0013478326993171439 0.002474668573538321 0.007956390239416777 0.004614730534237968 0.004859607387944456 -0.015420750388054013 0.00751725661595475 0.009422654844116037 -0.007123065296172692 0.007427497731125547 0.004484867438576717 -0.01577452739389303 -0.005239411661254112 0.0034997330346695707 0.013691969729048953 -0.0095054334890642 0.008385442800495784 -0.009329560802527729 -0.021806191270251515 0.0026284652701379276 0.00044661165217227243 -0.0010564052000737517 -0.008990191331332833 0.0020611064369586997 0.0002833056518628173 -0.021823854114840578 0.005216934046032829 0.018927697727296015 -0.002618947239695387 -0.021146347247798958 -0.002452813385377585 0.002356341321054542 0.001913225968858396 0.016205478235204938 0.0018942183530796454 0.013451062897493331 0.006696401777417661 -0.005482385835839589 0.006717819221692776 -0.009796417490651327 0.012921120365810383 0.007115066671893031 0.00028548843038893464 0.0003610151244546127 -0.0034737325976694675 -0.017142925409058853 -0.003631451544376768 -0.005550507734955878 -0.012732004672342041 -0.006488434147278043 0.010824350781135441 0.002954270681471936 -0.012697275694479898 -0.0011557378779904481 -0.014969263455669481 -0.01804300604677116 0.0070189013088075 -0.002166274974598981 0.0023614741424026397 -0.020338377080586643 0.023019721637349166 -0.00851712627209835 0.005120177881095319 0.011729191695246565 0.009804941231598766 0.011398575024792705 -0.0047826046824957814 0.002343980885732163 -0.022393988758933895 -0.01720318327979605 0.007421875195116357 -0.019586210508713602 0.004941171509837438 -0.006581150651213802 -0.009070071635362525 4.8656208678487653e-05 -0.006276931963456557 -0.006336313583395056 -0.017830942758068076 -0.005941299120383656 0.01307679905475325 -0.009283043507390022 -0.009657444838573793 0.0017775694380334983 -0.01391315539862237 -0.005739518042766771 -0.003971688651550528 0.013810735617777502 -0.02075735077481835 -0.004065187350600594 0.007677013494642114 0.009892045402029353 0.009305922647633266 0.004344063075623779 -0.001797807682899905 0.01132076329195822 -0.007800560802140109 0.0023042017490977626 -0.005924896526600354 0.012281879537171487 0.0032726298382602793 -0.0006034128981364217 -0.011994151375141288 -0.0031245226647920207 0.007895611746199446 -0.007831446816572128 -0.01007428148341975 -0.005836230234999944 -0.004796149401068431 -0.009888848525908113 -0.007069224072289865 0.0008509190359702045 -0.02132932816065104 -0.0005567522498826681 -0.005029905502684928 -0.010475144749531795 0.006395633434018446 0.010291739590649695 0.0035467204782048396 0.011289641466776457 -0.019297554047123792 0.008662391825804791 -0.0023062073895301106 0.014414999485771721 -0.009554433016060066 -0.008238196421338977 0.008533928026071618 -0.009905268338466016 -0.008077446936877586 -0.0015610608713700035 -0.012840491511613648 0.0004969740151293943 0.0016060499319630935 -0.0007479095112601812 0.005755989948103396 0.0036489039123089374 0.0053581441885387415 -0.016477145712755423 0.01036886874053455 0.011096171813853133 -0.0008639167648684217 0.0041199814951442424 -0.013256029443404186 0.0002149437578125628 -0.003739298394378229 -0.016533021540921747 -0.010582489809882687 -0.01059756630890999 -0.0061747606430358004 0.0016074952234757561 -0.006200215896890173 0.0005667127332290361 -0.020075273098977806 -0.01461077860354075 -0.013670377835939239 -0.005981588454336818 -0.0020788855319282787 -0.019948255881103348 -0.015455168342359406 -0.00835194422706192 -0.0030545491527743693 -0.00040103481534053005 -0.011006395357185384 -0.012324734786451371 -0.02002311658100028 0.005677610498772949 0.0023896350503700933 -0.0027089728908435366 -0.023727404563967262 -0.01624837698090183 -0.005977834498930701 -0.016959662095024974 0.010847021921692911 -0.01569999080811561 0.005279071606026041 0.009290143835791062 0.0038691230460084066 -0.014984057592654334 -0.011128085188795496 0.0031845081021410248 -0.007549701666765852 -0.02225274287070357 0.002318464155812311 -0.010133796689157612 -0.004339041985469467 -0.006994652245131261 -0.023718839407632763 -0.01932830750096285 -0.0037420626134852214 -0.01906065285583294 -0.014082965157260322 -0.010463872970908398 -0.0022837262644468345 0.004243929613531409 -0.01428346965669752 0.01186656529479235 -0.01183418988613735 -0.022388341577472593 0.01238088114045359 -0.019491556850303536 -0.008603902832580149 -0.007399106193597369 -0.012924896219331102 -0.0019548505565937934 0.00695709318689766 -0.005353082473994171 -0.010263753351635605 -0.00809077775654439 0.00626260018100718 0.007606379809218534 -0.012858707186910437 -0.002622792645268933 -0.0027396436127404607 0.0030026527786336707 0.002850124175091985 -0.0064423657565543775 0.01042051601469956 -0.012111084914246154 -0.02158702266563549 0.0071641285881761455 -0.012731455845792003 -0.0012635458289362894 -0.01647677571284913 -0.014039958597948363 0.012995443368245992 -0.013854173749606484 -0.005896050081021383 -0.03197225866589889 -0.019077662910016408 -0.008671424195549941 0.016446508108081993 -0.0023243135065367797 0.015617240662092765 0.006022200659928093 -0.0005414810621149573 0.002066254267550394 -0.02572725456143987 0.012317624455760123 -0.016313914283579856 -0.01809751566860266 -0.0069682415216388415 -0.0026590450540909237 -0.0056892775939904276 -0.0003899072432611441 -0.01765677403326118 -0.025436226582394077 0.010154815289628681 -0.007661039492936952 -0.016719678888552546 -0.008715288746074835 -0.0033661571322900034 0.011081219267155879 -0.015128539280562429 0.004115034543607506 0.0003162466785210198 -0.007638155769295883 -0.0011663372554888685 0.0010870300510428164 0.013766254628043081 -0.005441024393074226 -0.0043031715455033575 -0.004247180520382681 0.011991795002862099 -0.008638183822495107 0.013662600424237642 -0.011658938609501584 -0.010594465041540331 -0.01901740882624582 -0.019670570100711063 -0.0018944402947412313 -5.649396406769153e-05 -0.002215922349821696 -0.00840867894220961 -0.012628303571243442 -0.023745673154793548 -0.0004597569101260314 -0.0055246117300206685 -0.016522130702265037 -0.007250884416061796 -0.017270592073069586 -0.006233345708038698 -0.0033478158926060395 -0.00147692407215252 -0.014703204308666363 0.005184198046218476 -0.028627480425723044 0.020124579567118953 -0.0027210495028337327 -0.006732167697840712 0.020196163317811173 -0.011988743190998144 -0.007498714940417692 -0.003943335861798409 -0.0017754981163675963 0.0036770930003926883 -0.01886796972778285 0.012219410385620853 -0.011496963422466394 -0.0156123085150401 -0.011687060842747435 -0.007248609179124259 -0.0043399660545336075 -0.008180996049456718 0.009378156622936146 0.011073347883135753 -0.013628313496388156 -0.007182390066049167 0.008979059198495122 -0.021087699172016538 -0.005952303720227841 -0.008580123345380443 -0.005412735377523339 0.00011908413270473235 -0.0002456999363059007 0.0018780503336551435 0.015710282283983898 0.011129634575761336 -0.017839284694085654 -0.0009841083420520063 -0.012575840021534673 -0.015084358340023375 -0.016283739776846717 -0.007974369535853036 0.008714688292108697 -0.007186060445192857 0.0031072407764793477 0.009781877123358068 -0.021699430353995245 -0.001591721790213604 -0.025916906688108594 -0.007133599150198605 -0.005639715150019685 -0.002529999996348296 0.002102748264922177 0.0031346737526154566 -0.024763131922652434 0.007102185331435252 -0.01376137874507695 -0.014595259034804941 -0.012639379896414171 -0.013322627966968774 -0.007954027096418282 -0.006027067036123 0.002610049082656518 -0.0013071260430423603 -0.006199910446540251 -0.022173175758667493 0.0029883567383235344 -0.01381488840242154 0.0074992252627588555 -0.0132038805018741 -0.001759304869156174 -0.014646095547552687 0.0043869411649764545 -0.014023729703114794 -0.001980851196920557 -0.008293950717461302 -0.0008646075786709152 0.0016985527986358535 -0.008285601105059917 -0.007039908032824487 0.00395167606437672 -0.004177150543198476 -0.014224671799087233 -0.017294575410208096 -0.0015679653493912682 0.013794085800790336 0.012957601894292743 0.005571470817892939 0.0022430013145479386 0.017609534924259897 -0.00010753166747061986 0.0033051098742653507 -0.015862213298464923 -0.016458949960685424 0.00041879256397384324 -0.01417496169603656 -0.023786511911484048 -0.005251088081925067 -0.005207725607455809 -0.02058226989116763 -0.007686786944291621 -0.008978480949507602 -0.02204328242155509 0.012086226951076506 -0.011133008174403438 0.007705280337499514 -0.003689667374975591 0.011286648442587012 0.013791209042413662 -0.022800410175830198 -0.0012698401088925624 -0.0028224703003410048 -0.010682137319297394 0.010644440065209355 0.0006527978226742862 -0.006059228902396782 0.018118717056536757 0.024866131683369663 -0.007233781362591445 -0.0001917307798842241 -0.018940572535641968 -0.0033550558121608625 -0.011812502226605445 -0.007072214488394678 0.035824163156398026 -0.019017452577187132 0.01152837593684526 0.002183454945137389 -0.015714476694136174 0.0005008946776794313 0.00223304572640125 0.006481869792220924 -0.0074643797788409745 0.0009303068739912901 -0.013987131843294854 0.0015259303182031828 -0.019594897496438685 -0.007379016363904099 0.004769284194862559 -0.021464691962965618 -0.002808386030540339 0.003523033781233288 0.0034894199125604258 0.015732606088480684 0.004609595710306443 0.01514334424707337 -0.012921162819153464 -0.002414359250311714 1.2509486078664261e-05 -0.008056504332418479 0.01342428080170446 0.008100080625198508 0.004295841998210762 0.0008090520359725993 0.014504569312255631 0.00995213482673322 -0.006683184691179911 0.0032015106971075465 -0.0002159400212432974 -0.0125522430353957 -0.0016202611651869555 0.01038289710933054 -0.002396536715052219 0.003202994290305668 0.0052449707332212474 0.0195943322095197 0.017371637436685853 0.0019554676984546667 0.004789612054232509 0.002633610933198716 0.001695267270337774 -0.020862541525540148 -0.0018937168811792849 0.007012649926239667 -0.009007218049931104 0.0042356751140910955 0.004721632264630461 0.004771603301005576 0.005720825514814616 -0.013504828078809384 -0.0018262209474784253 -0.023055148456477825 0.0020843765094467883 0.006846385208609261 -0.004689063382538065 -0.007456989603291036 0.003125580789471184 -0.014431122216547741 0.01917655487827822 -0.007144736406107468 0.0020914055874758173 -0.013172499624658367 -0.006397573167870704 -0.00038972983342037016 -0.00559380189223559 -0.01767594677984802 0.0050930229998099735 0.008644288337693758 -0.004012398349289398 0.0037165791637901657 -0.011405014494505018 -0.01255287421621308 -0.0014832469441012795 0.0010146582915204895 0.0009103076567774525 -0.022463806571051636 -0.0010424897744810986 -0.007432653097379334 -0.0015260519953870931 0.014352916234795296 0.016423731231973965 -0.0017307562880080197 -0.0040008894207230646 -0.007682205687066879 0.011099404758072388 0.01086834989034492 -0.003926567710337671 0.004030040798824134 0.006135053847330133 -0.01053255463613451 0.007443482268639676 -0.013177436613257423 -0.01742189295884666 0.004620665536141115 -0.0024335269391753908 -0.014002934758790529 0.009734353962095163 -0.003765775979229842 -0.0022027628841836074 -0.0006053034999436698 3.884577441669558e-05 0.0035850559688971845 -0.008212920895773105 -0.013684909503615289 -0.021196090412727662 -0.0027609602953548398 -7.984434344342809e-05 -0.02304090633810153 0.008146174640852646 0.008533537528125827 -0.0033236039362933042 -0.009417518803422 0.017208778626202396 -0.00017619123268744453 0.0037770934210400735 0.007661787824462094 -0.0002113036506072722 -0.009291301422243131 0.005731326761992464 0.000236086129501592 0.0007631877390364887 0.0018595427216617705 -0.007752158852678748 -0.012561259334383615 -0.008605928644744368 -0.008133329452519966 -0.012584968479282277 -0.008738403683949738 -0.011474421269668049 0.0072843569178396555 -0.00522939459900627 0.006709648264017133 0.0028741705453896745 -0.0011078649819193983 -0.008258438601008625 0.00026319551250509135 -0.003126246155272475 0.00637878960929953 0.009626948039297157 0.01126106327255099 -0.009560007459731982 0.005804271153569042 0.009607257379085113 0.002414115678950586 -0.011957082041267114 0.014865938448543005 0.00330135908400402 -0.01158726061142835 0.01115288179050897 0.007207073554881043 -0.004363495685500664 -0.016022965358243674 0.0035702912778486345 -0.014466610606467463 0.0062877610832692814 -0.012683978017790417 0.016536141202008595 0.0012582741844315746
0.0021873720718580017 -0.0070602819623811685 0.015265469265811696 0.009263092324305467 -0.00822568013141139 0.011495257581986136 0.0009287727411948681 -0.002872416481900597 -0.016624362128139877 -0.0014531276655736058 0.0003916363184304991 0.015039698172895943 -0.01453960495181113 0.0018282616833907787 -0.01842687611960448 0.012971944460432972 0.0007006657784957164 -0.010472552567053647 -0.002769010801658474 -0.005476849665313975 0.003719868804644183 -0.004281011647903873 0.008584882478485436 0.010408051748293519 -0.010653390228375812 -0.013795433521071751 -0.0045566067367352825 0.021369724505224303 0.015075228960074103 -0.0008603629863369987 0.004391890812376997 -0.005792172028013505 -0.001898478738358117 -0.0008370000955406214 -0.009169505151275988 0.016458028877431374 0.023289233255279575 -0.0013851133748079018 0.0043972816224576725 0.0059231436588409025 0.01387643163354886 -0.0012176443950398768 0.004793761193174136 -0.004219084392050217 0.015751465061391176 0.003726333015057003 -0.010220253984755796 -0.012438203733914563 0.004295420630998233 -0.020385493302369783 -0.004184500506832215 -0.0190590076497547 -0.007438602755341105 -0.0018117198803123263 -0.0003589649522874526 -0.014360008091383459 -0.002151518733761993 -0.0013655632788074788 0.00573342793084135 -0.005918270371805665 3.434853008856314e-05 0.0025035095222251157 0.010755849608838424 -0.010868968539106679 -0.005414606420033778 -0.0006794575742760467 -0.007548296111354616 0.000599962038163673 -0.005995468524643671 0.005865554068070705 -0.021401947011867498 0.006337997796088471 -0.00023788268257794582 -0.01624804718482975 -0.011376653876251782 -0.016415209304506188 0.003120996799476291 -0.008951002053069838 0.010664337816801157 -0.0026736699818298805 0.004862947922485805 -0.015349807877262645 0.022549074127607347 0.023895685623319462 -0.015815021372505324 0.014365978872651477 0.0012005560870173755 -0.00017447009421154883 0.0009289619172562644 0.007765267121135609 0.0045967934758029405 0.0075543110003907996 0.00869000498487184 0.009832895156163557 -0.0046925726836727745 -0.01205880643320459 -0.008758519325056632 0.007219518013854168 -4.3748424311991245e-05 0.0011541962913458916 -0.0008126196942360665 0.00298515434482306 0.010415045176709747 -0.0163858915123917 -0.001717735502377944 0.005194832178013161 -0.005747505594456274 0.010078294696608923 0.0057149205563758925 -0.01540321436289626 0.007255280113537143 -0.0021803328522210126 0.00896542691332298 -0.00961058321510538 -0.016749665082659737 0.006234895353878635 -0.0006464861118368716 -0.014828698169542838 0.006769269051431659 -0.018736002045254448 0.013053463965727001 0.010990126598685595 -0.0025522428497795836 0.007907976756777397 -0.0023191415720515986 -0.002667039843619289 0.00479918466148081 0.01970152335337115 0.008971956732183565 0.00021024084109804632 -0.026352369778906846 -0.0006170790583200003 0.007723317035085308 0.004187990760019865 0.0146567300146533 2.3839446269721576e-05 0.009410179265888975 -0.0009362086241726465 -0.020358433063142632 -0.011353773726176445 0.011925939198352994 0.008597937028193706 0.010955156138793233 0.004221755032167582 -0.007731451087232248 0.006420173942861312 0.0147854804439459 -0.007217214149969255 -0.00997213726625512 -0.01734287598358699 0.0031832317734619767 -0.002797091119153435 -0.001210579761339482 -0.006306864746489595 -0.02249982490645547 -0.0115595766170673 -0.01824678162169637 -0.002438711826130722 0.010162632265617587 -0.004880650425449158 0.007067316307948191 0.0005803770809189336 -0.006226095285147843 0.01246678242156786 0.007243173357173423 -0.005270082777791449 -0.012698223503035849 0.022452677256207237 0.007744012145190321 0.016383574230250022 -0.0027202201179818753 0.0020664546603967908 0.016333943792903666 -0.002794669301626945 0.0018636922322193205 -0.0032332791289159204 -0.01476245378464703 0.011620077551127258 0.016425303682845196 0.005405414723111153 -0.0045981987665143255 -0.014655758874012484 -0.00041952857552596056 0.0008813604641901678 0.007014509715708828 0.001067945534812889 0.009668375781336249 -0.019011598901862624 -0.00028282797667694844 -0.006830219397003028 0.009354530517228605 0.0027435851289778065 -0.01900275157032086 -0.0024499553704939126 0.009530640600317131 0.009762089446048365 -0.011354528388088321 0.019414656556959644 0.016699745305173423 -0.0033103411707331924 -0.005091333249501313 -0.00515287341392113 -0.006726752038963443 -0.009950208165827248 0.011878688104787434 -0.013835111835462141 0.0036663707674528282 0.01981679758918551 -0.009280780646137445 -0.009070770788679143 -0.027146959569273467 0.016146077698142948 0.015081324582163866 -0.0009912367213414694 0.0007715818768200762 -0.021416255177815594 -0.007277830572957422 0.013742084852025842 0.006775539585396667 0.00204475377382248 0.012422368284601526 -0.02124995852178252 -0.007835473568668934 0.014994992200227193 0.010165723382871883 0.0035137473943586063 0.007451023454731351 -0.010306396780488917 -0.011325673558161914 0.0015862912222370375 0.0012285661965804843 -0.01884170481214163 0.012887285778298676 -0.0052297579068249795 -0.021175091493857594 -0.01458613875300032 -0.015099854080296588 -0.0077307205591676436 -0.0063665280784697175 -0.00012051418177375208 -0.0030795947554122503 -0.0022810560546383273 -0.02255022476375574 0.006264149750848185 -0.011339772958463916 0.008335059634197202 0.015624020362109492 -0.010436393574909397 0.007420571864302124 -0.0050804792926901435 -0.012076407571225528 0.004388855821787286 -0.005080887152472824 0.006437496544913109 0.008327467781838599 -0.004381736266184813 0.004338707567284256 0.003065954962454138 0.004863759424368052 0.008075998271722585 -0.012198932771651683 0.0008358448934157548 -0.007784751360390332 -0.0024913780204005105 0.019998364176567116 -0.006335259437164511 -0.002707194744427834 0.01705950805232255 -0.01932065380013191 -0.00010784856102603237 -0.004387937099883159 -0.02716438769953653 -0.013955775566795533 0.0003689412995141902 0.011460358949113698 0.005868530316264345 0.0050046753361400725 0.01140240300762802 0.007076580209378547 -0.01946658408952876 0.005414439382107707 0.00701083896774865 -0.0119684350127222 -0.011456941730522467 -0.0216616592041626 0.016823058238250047 -0.0030057898108849326 0.009582506403412426 -0.009829554312228964 -0.013395654875289688 7.908573138660748e-05 0.003642673476239856 0.010995547897455217 -0.00992870432215362 0.001862936271839959 0.005188787177741031 0.009644129605195855 -0.019549722709655805 0.0047211671950104575 -0.0074328242477318136 0.0009363176383332725 0.000892582225414832 0.013095247815695548 -0.002006869089104792 0.003942495808069095 -0.007420495910845343 -0.002447733992004417 0.0038788798482634803 0.01819366630479075 -0.004034960584599831 -0.0017355934980858923 0.0015875414829350707 0.0080631960911843 0.009070564448609982 -0.0007651794677312129 -0.0003351386990740098 -0.007114480083161264 -0.008629985889193281 -0.012974714811821313 -0.023851568356447316 -0.0049602742046526635 -0.010920864948969034 -0.0023205899452588465 -0.014640154613483168 -0.007753769961518933 0.004627609778995039 -0.006101125075916959 0.022746839847090913 0.00012554893674261342 0.0037410002433426177 -0.01614625817283131 -0.012697268216679741 -0.014794781613473874 0.014654361518720583 -0.001974523327072027 0.015379399697839911 -0.002718463853365864 -0.0036798155290056716 0.0020031954522395415 -0.0067627810072379245 0.002092817151676371 0.005071640603453784 -0.0003708460020302825 -0.0034812008396883846 0.005418981957085526 0.00786785940490539 -0.006973192599716921 -0.012258448761768296 0.0007392467162451564 -0.0017290985718017193 0.001763599812611975 0.006387484977806125 0.006631990092156069 0.0012035171891857047 -0.002943372585583231 6.491395000612777e-05 0.0008739665086286356 -0.01454271798948746 0.008940398917542771 -0.004477439774607975 -0.0032634176000288 0.00685569958502098 -0.0034498351246317993 0.0034539318781997745 -0.019666679071284082 0.002446218776101487 -0.015806096838141874 -0.005657882701963891 0.011274733026092661 -0.013758777936683264 -0.015415463207317126 -0.014796611216744486 -0.000914258920959213 0.005214174528890907 -0.0119633252906216 -0.007953599717315726 -0.008779276457201298 -0.005276896746265328 -0.007626782324328735 0.0016642003083789693 0.0004624323093444392 -0.009707384777695649 -0.028075748253649373 -0.01779307657985392 0.0022663888729503776 0.004511718238873324 -0.006127483569111334 0.002285805464989925 0.005320304497453545 0.014829113252981337 -0.0013311892005528178 -0.0059358158745405525 -0.014484323066898435 0.0014662438466635983 0.007167416540572395 -0.0003647040817572176 -0.0075344694777737834 -0.01438815429788344 -0.028319691882179553 0.009901060255333053 0.00043773877225533695 0.008517730240813775 0.0018074180685584379 0.0022964300887869512 -0.0061833205560676485 -0.0040720987300622005 -0.028957952325762332 -0.010506250725196627 -0.012257286426784279 0.009188106406910397 0.002635977725809663 -0.019025177948945877 -0.013173608436935992 -0.011461334373554942 0.0061210728874193 0.006428610477656866 -0.012587186878136375 -0.013875572438296452 -0.00240988171556962 -0.003935906978461888 -0.006484708565942707 0.0006093272703632538 0.007727501442102859 0.007179169439378508 -0.002679329166826745 -0.005373076415500342 0.004199765441189035 -0.01602411332043758 0.005405223907652682 0.008688354279019123 -0.009745664202011737 -0.011312801562542411 0.007180410725488579 -0.006362917258551768 -0.009690493834448635 -0.003494808425647738 -0.002799845619076632 0.02052421276778136 0.0019429904766336864 0.002443983236562626 -0.005291399252268619 -0.01525812274966571 0.010033576360443669 -0.0015933045470530476 0.011483066057288948 0.0009289562693011564 -0.012806542173693357 0.012946748996456457 0.0057160226875930045 -0.003041695807983706 -0.011173033175246025 -0.005317445256848953 0.007803508521776898 -0.006287038035109268 0.0045902562941921975 0.0005078606090136012 -0.001799292707343527 -0.007692339131651702 -0.001958622971265199 0.00019694299477697455 -0.02289394107426705 0.00805928815783104 0.008051585661998815 -0.020056195239280247 -0.002423844070933976 -0.016362773746878535 0.013504507707930406 0.006867501337475416 0.0039926301732596 0.008098793603845245 0.0018526898304463745 -0.005520952800473513 -0.005449175214565326 0.008619239335262523 0.0030473619280198447 0.004570683263220698 -0.0006999531276632411 -0.0038020647596157396 -0.009246683596218865 0.002120904369528654 0.002242959451321577 -0.008632432297711818 -0.012388188000611476 -0.015124050429099511 -0.00036619507182167674 -0.007093937442566983 0.0052361253483620245 0.00800683626593333 -0.01018876684999006 0.007990176854812412 -0.005670153665521375 0.006137831495251553 -0.010606980265517919 0.0015005286018020942 0.003816583508002161 -0.008279149850016843 -0.013122613769350254 0.015713508842275428 -0.008609138736489361 0.003561278024038865 0.0006941013565699173 0.00853297223662762 0.01329685274408247 0.000731904224403119 0.008215081180814359 0.008930422924185742 -0.008796463976264112 -0.003566645968360235 -0.011402699530840645 -0.009216377846886012 -0.018264403653949893 0.000742096786179788 -0.004856308164174673 -0.0002061841708216214 -0.00839484274401703 -0.00227008125622321 -0.003867429894993035 0.001582417301361207 0.007122354885348977 -0.023927075823307383 -0.007214573344088691 0.0009513233794177104 -0.009752210765304027 0.004266943144141251 -0.008280370233665905 0.0007271658636745194 -0.005406932773010179 -0.0009278917099319739 -0.003029712321048301 0.0033745553459487015 -0.0016821465236172577 -0.0003083625474992155 0.009214006754988518 -0.00838035455880786 -0.012559370749153642 -0.006925930532754892 0.0043294736039468495 -0.005735045686971568 -0.018290234854555505 0.0006314855034274316 -0.00864023962807939 0.005026085660026318 -0.0008516533882724588 7.105767224371708e-06 -0.013631387238653495 0.020183422113850127 0.0006696073442481216 -0.0009118071988566107 0.007247038522070048 -0.006922791714797896 0.007537877025989521 -0.027628748624379106 -0.01030228811567557 -0.008985939514635282 0.010189477004406946 -0.014845279970692326 -0.009164636972176126 0.0034254232460869108 0.019880692293887118 0.01646783122903139 -0.008814183735377651 0.002295688871961148 -0.01947976119093015 -0.005584362915503703 0.019753138458047066 0.002921928905029404 -0.007603827451314698 -0.0060295540799954975 -0.0012283197373781987 0.014871905188686474 -0.002966030159279115 0.012134322782381869 -0.002068310876750317 -0.010728464106350038 0.019046675280044806 -0.011996378927456709 -0.00873911992961713 -0.00563303987206139 -0.012609530952172496 -0.008817303798314493 -0.00577142641933969 -0.008031819028683525 0.017494595208987298 -0.006828879876297059 -0.005070859301320876 -0.0075601826130814575 -0.0178147255030867 -0.01738764530465866 -0.004091700178778407 -0.004630775561305488 0.0022145254435615006 0.002413084169722973 -0.0003566722480789556 -0.0016956147424840725 -0.005404478266600004 -0.009445968277797654 0.004468495765316614 -0.014001153259916648 -0.007910246109853102 -0.007854808978051889 0.02211105372222241 -0.006561929962887063 0.01713168732093884 0.0025058286161666232 0.008037634076702476 -0.008263698086682768 -0.0016388958750263658 0.01015591659082279 0.007446782719047597 0.01316553936806135 -0.004751658106762317 0.0024106901122418777 0.007201465303481418 0.002016274550569211 -0.004229308303526555 -0.0009626604260516079 -0.0156606793621466 -0.02068867313297959 -0.000523979390238656 0.010600751775606461 0.0016487750228528781 0.0032144431828058473 0.004732022626008067 -0.00862000084134869 0.0003191520037790319 -0.005246950339944418 -0.012253955020479119 -0.006700043296795642 0.003278456713957956 -0.006884537860613654 -0.0008932219993855434 0.005543169304167496 0.006896138136025904 -0.0033303547143094677 0.0013676528759779076 0.00154404115371525 0.000940312349460101 0.005512878208582251 0.00718448477025393 -0.00544243035137881 0.0007902057025441394 -0.003789264590609003 0.003573535943220886 -0.014907675676733676 0.012269013209737764 -0.0023197524165878 0.00395064309906056 -0.0011402805722254183 0.010047986490815536 -0.005430584356893419 0.0037430557088252523 -0.004131073451632925 -0.0024894773268682485 -0.003589585620214303 0.005524161485180902 -0.008769859338907364 0.0066204746241828325 -0.007845709876663888 -0.020530847513969174 0.0015810083078168057 -0.012059994323349511 -0.008131144533852493 -0.002753352534893816 -0.005658906312912506 -0.017698584903304112 0.02243894560540739 6.931936808815705e-05 0.017113541007557458 -0.0027759304085823115 0.007129624715095251 -0.011064035375728499 0.012342076919595855 -0.0048106824244616465 -0.0036174692240834683 0.002873639941011871 0.01839318408758572 -0.02406534816277019 -0.002257100374512045 0.005142743395004203 -0.017460471148131648 -0.001537555668045759 0.01167766127423151 0.006462986272010022 -0.007185341540993158 0.002290119419914331 0.011928073856117145 0.02422656839719499 -0.007003099336004392 0.012172602539244131 -0.007960311277278243 0.0252942273854819 0.005914642429707684 0.00022521724607824992 0.00451124800690279 -0.008453349254667192 0.005621770302918223 -0.006432557858324844 -0.0010393885607536315 -0.007368088619323913 0.0045495664206909436 -0.0016785995556314842 0.005149086774424323 0.009895236924430777 -0.006986195805171722 0.008092026385195862 -0.0244503402015312 0.0011306727175530297 0.011521444827868207 -0.0017891670479747606 -0.003855886498478294 0.015892057506330604 0.009113788541637344 -0.008173549898328808 -0.006849639054572324 -0.014416529519847524 0.005713001437158301 0.015806710609753326 -0.01215852668801862 -0.00017140864743754518 -0.00699418728680782 0.0074630258036068094 -0.009235066831326548 -0.009293674708814878 0.0019547394999466345 0.018896120334777167 0.011552650695752316 0.01583353395879586 0.00024964656049965967 0.01258597549702491 -0.017414639158763706 0.005408865687172947 0.0032101136711766053 0.01169041627214407 -0.00036789136111200387 0.01593539017747181 0.0027871878340214977 -0.0075473788547061466 0.01163490220742851 0.01471618412703982 -0.012264176140417214 -0.00832996289186554 -0.014463063056964558 0.006009092758976273 -0.018965388383606348 0.013348696201824706 0.017658392305866022 0.011196169843005224 0.00856438208231019 -0.005543705099351985 -0.012746415667619618 -0.006537963941019322 -5.55074502968582e-05 0.0019013898781141468 0.011328134016199667 0.0076754881273458945 0.003532097319564126 0.0006853996830021972 -0.00938722699808974 0.018771307986698356 0.00892028252606268 -0.004857941766561612 -0.004357061994290303 -0.0086128647062213 -0.007581171338607755 0.006566635461736671 0.0038558613525938572 -0.0067312507295707695 0.0013428363258737007 0.0029653377644315512 -0.020347533167747213 -0.0033429384616925784 -0.010082877356031503 -0.003400375270843212 0.003213776939109819 0.0022355702660411905 -0.00602787141750058 0.010803795895316982 0.004303501163180988 0.00878513899658636 -0.010260744719827694 0.004761362573533175 -0.0033510180850372592 4.874654988755729e-05 0.007002105207159789
0.008023095171956644 -0.007618128346844393 0.014725759227210191 -0.0013989996222095592 -0.008249477318919113 0.012383494992095373 -0.0033682604955524087 -0.013286787914781058 -0.005162742571434157 -0.0026436042912064217 -0.0022908857282702482 0.004599316447766786 0.009741701346270329 0.0063128620408853045 0.01017405885380001 -0.00016772065887480557 0.00855490149806336 0.005828632938706495 0.007234252980036702 0.006829594414107569 0.0016544316655856288 0.012041654828526274 0.0067610954436846974 -0.002781486043626746 -0.007656673439876292 -0.004684986599950354 -0.0034021602848491586 0.0026381747107095065 0.009902529456135414 -0.005059526025813246 -0.002325493903453368 -0.004340715428400426 -0.003781731017513636 0.0030133002675368646 -0.011843571635903733 0.009524601944634715 -0.0013154320287194264 -0.001639300440850785 0.013086501013575901 -0.0057462959445270185 0.008014470988601365 -0.014845780398184377 0.017537455770639 0.01172978000978207 -0.007825433049127287 0.005238576787781605 0.012995142082572146 -0.02611113596611979 2.671603196844141e-05 -0.002088350854774515 0.008874806043942729 -0.027890847800806626 -0.015333949022864926 0.02061301672032099 0.002107327857869955 -0.0018407316190238608 0.005381789527951792 0.0032732401264229383 0.006093243682922029 -0.011521055155161108 0.010322703865728705 -0.010762914581187444 0.006646508217022928 0.0026673950879223095 0.007269504689897426 0.00615192820544145 0.005935396548984708 0.015563813136574456 -0.004687514528392133 0.0010086779276534486 0.007150757690896883 0.022666932793998184 -0.00035406187026310195 -0.017011277704932104 0.0054848211423774405 0.004888743842101655 -0.0028575653387721395 -0.006386993261025648 0.011376391207547094 0.012226624391940406 -0.00882451854878846 0.007151892371490505 0.015309880035965005 0.005090082330067794 0.02563679069451802 0.0011799599872428035 -0.01680283943077589 -0.02151857326299448 0.0017675835605448257 -0.00699517708519827 -0.004153181169337524 0.00028894046981544876 -0.0038324060580731774 0.007730677428410428 -0.00656111346556097 0.006484435095621421 0.009526667223842244 -0.007419973961753699 0.0012603208293252433 0.012403634015672906 -0.007132532946447667 0.010021456378115216 0.005156658724113899 0.011833957095210599 0.024318036444904278 0.0024535398651395566 0.002306945840935732 -0.006847657821860621 -0.007757948128687637 0.0004608661752361331 0.01012308160216176 -0.00328682088638138 -0.0012829010819012682 0.006686284274110669 -0.015868746302033623 -0.014804639940473367 -0.0030025524423065485 -0.007745587153043855 -0.017314670895822254 -0.01567477906070484 -0.009955148384266685 -0.008064971329078317 -0.005579718038941146 0.014621010065711447 -0.010698577229056353 0.009421525467264312 0.01763963186238455 0.013087700832108853 -0.005028634858011915 0.001087226862804187 0.006330075938612883 -0.0028100083323436284 -0.013196083884851984 -0.007862446664750859 -0.016017385969266395 0.0033960181476676413 0.0032016332620016827 -0.005344234278164158 0.0019932752779902073 -0.001734401907944329 -0.002520899186411718 -0.00013585859579202066 0.0018126865739807308 0.008243740752114835 -0.0025813851980231207 0.015854314522053926 -0.025698787156066848 -0.033734867090998696 -0.03135539903529959 -0.033466394854791255 0.0051997233101590415 0.010825646231930672 0.04877069763930507 0.06981836430175366 0.06672350998171907 0.07416440267336394 0.057500993730831465 0.014206868258890636 0.012159577137458766 -0.003915407570179766 -0.020546049828059073 -0.008109664880749948 -0.014348318076773394 0.003621375982867774 0.0017636962317463833 0.002675330747106804 -0.000903912824517903 -0.03152770309433509 -0.013927743082422322 -0.0030516813731377057 -0.0008279843021093648 -0.000441195130143865 0.007701435971466612 -0.019689113570067193 -0.02741028208510891 -0.021400781591215525 -0.04542089603083687 -0.0065766101321058194 0.015841932592150342 0.044857982433706214 0.12207350545342327 0.150356244404684 0.15202344340684804 0.12187130936357951 0.11066209849795915 0.08204989817285112 0.033900600650554336 -0.003545977516071602 -0.023605919040142708 -0.03368751462236189 -0.02188629127519071 -0.0031649313330894594 0.0037082506608673176 -0.005956107493595462 0.015502755101045962 0.008156332513941772 -0.0020111429930932605 -0.006510114502903751 0.017304213285651165 -0.009850180867573602 -0.005061327106852997 -0.0432988744670769 -0.038982239554236 -0.029731643425795488 -0.002129641607973924 0.04592311760453783 0.08470478461353335 0.09081366057299858 0.15120872202199345 0.14028670043486563 0.1816389449104795 0.1546145032102373 0.13719274978472834 0.10178928815528475 0.009624283770781216 -0.017432354047251575 -0.053768630788792515 -0.07849752085517639 -0.04950736133295911 -0.019458502562621813 -0.014119859457760849 -0.005036612610807627 0.010042144998351675 0.020290618737766976 -0.00987207010900011 -0.005249847110538329 -0.014216722434530519 -0.014730875344729312 -0.026867655347859107 -0.05496905818023449 -0.08715529708701869 -0.04050730070153062 0.024312712064363837 0.06032356630435329 0.09062710016648137 0.08958592832606103 0.07745234323693562 0.05245017774096738 0.04742713972513427 0.05419328990724092 0.0688530266817621 0.06903655803241189 0.040210592168265204 -0.010942424499905777 -0.06965067053839288 -0.11230466550407633 -0.09766203878781404 -0.06111755999264483 -0.002844504635702364 0.026785546689941077 0.008410079482559103 -0.01727001047741372 -0.02205852223090707 -0.025488277430427527 0.00860022872934286 0.004705722421465252 -0.033278905397229 -0.08329683446741644 -0.11597472044206963 -0.05918518428450861 0.02394948193300114 0.08190346222528994 0.08445315792918773 0.06881133479349448 -0.019044800376162834 -0.07492311086396282 -0.08034766580940886 -0.04899939060679611 0.003326268654457366 0.04159224423499832 0.012521892761722213 -0.03992782682944537 -0.13615845135754215 -0.1512653679961557 -0.13778820478816675 -0.06820442591001856 -0.01573309435920473 0.017158461797946518 0.0300999752127479 -0.004759827650760508 0.004478275143334321 0.0036448826009646013 -0.010439447336857834 -0.015086346059825164 -0.05737360525219971 -0.1295081469097002 -0.1248536300819181 -0.02970197876479631 0.021973542382871948 0.032608642552410506 0.006288180033413702 -0.04992605653439009 -0.1351781481797598 -0.1542475246352056 -0.15268366432544783 -0.09185096322104926 -0.05616316288158981 0.010580184333918285 -0.024380237498675652 -0.045459713359922604 -0.1470427944430582 -0.1427606677494495 -0.1622693796585291 -0.10445812485408583 -0.018054541390592593 0.006969513800357988 0.0292348362786596 -0.016147043763556277 -0.0038134243670784372 0.011355369560869659 -0.0007742588353604503 -0.024885774232179376 -0.07171297126392268 -0.15656992931125685 -0.13779314348101915 -0.07876875562571499 -0.0221054659026184 0.00664940925858044 -0.03284576246002623 -0.14443778011162367 -0.18627814843523072 -0.20430080900037914 -0.17744668327829188 -0.1025625330959151 -0.07112411793414941 0.0009614343777540009 -0.019584730801831787 -0.05640065927919724 -0.09893198812819179 -0.16139072041722835 -0.18776725257890511 -0.13278646532907312 -0.04751649909558983 0.016116653056801766 0.014458326275819356 -0.004322567428468598 0.00019507596540228457 -0.0026069976953552072 -0.015608252688583778 -0.009438915638030645 -0.08760997151199523 -0.1811877544980342 -0.16578806830689458 -0.08809927031309418 -0.0037395001100406756 -0.0040705722819621695 -0.06995455598838654 -0.12278120059016369 -0.21395653302933978 -0.24788985367345717 -0.2116968835930867 -0.12407555731094548 -0.08940128738692102 -0.0049151750723882915 0.00474309615980915 0.0016701418948570316 -0.07962905883714462 -0.14106381792475897 -0.19034291409135948 -0.16940554409522046 -0.028612649289370875 0.0480021406805939 0.015947846108675477 -0.004035122237735745 0.00043447145121673864 -0.011291646306788888 0.0032146024422491357 -0.04662890586452365 -0.09357907582200939 -0.23367844822409053 -0.17774184539703422 -0.11064664556403624 -0.015668967566062692 -0.003982498286086297 -0.07809433219542244 -0.15844068242383108 -0.24053435897087677 -0.27212876193528557 -0.2373244585277286 -0.1563845592962836 -0.03324617695701116 0.016886323379969995 0.022383614190436742 0.00818158337610042 -0.05408531080662579 -0.13264014623851914 -0.20765082568794996 -0.1759641058800452 -0.04672589112446542 0.022164045513655067 0.025570598177989658 -0.002424078896321654 0.010244087318170721 -0.00829802990324692 0.004613275040212809 -0.032737066533651764 -0.10990526343924648 -0.2560833728361136 -0.22288120152239613 -0.0948570388447431 0.014710526796098092 -0.014103523138019509 -0.10538108719399504 -0.19891129774793356 -0.27752528194046056 -0.28029469134185087 -0.23846316896678704 -0.12711062207784893 -0.003462783293526526 0.06510157102372068 0.056482293341026876 0.03281762456329995 -0.05356032212671732 -0.1605021267625272 -0.2505233369206513 -0.2201622024939758 -0.07921026410000907 0.02324240584219346 0.025416392204008684 -0.008381037781865 0.0026007035742258073 -0.0040681276654874815 -0.017363620758793892 -0.027007764167365667 -0.12719905527766065 -0.23634261145260435 -0.2506706531325715 -0.07930419320375809 -0.010643178500595483 -0.049811426233514464 -0.12666286498906465 -0.19888717938060596 -0.24278834182281167 -0.24838687132377493 -0.18111860013867076 -0.05865012880143173 0.043875092770553105 0.08294726319273575 0.057648848185101825 -0.01688437999991326 -0.13136020618319666 -0.22373713244611784 -0.2690102553312744 -0.19262702371646614 -0.04588961227464853 -0.0032575445944545054 0.020197035085996486 -0.011117768402434643 -0.0057024908534209625 -0.0009299112880904103 -0.00823423796943314 -0.021065668851158816 -0.10483799570187544 -0.24106691797544932 -0.22927102046483772 -0.08692108550571633 -0.011356858891032596 -0.021652100263858033 -0.09730139761850508 -0.14945499344385058 -0.1951113447670204 -0.15043700179360753 -0.07919306785435357 0.018190322730493206 0.06297162722053809 0.038137599030673444 -0.009759108826137513 -0.07589613698582737 -0.16135289763384505 -0.2507143140327 -0.2193829969954131 -0.14044835312705947 -0.03506001206318036 0.015472251759694468 -0.014649981967512278 0.00019853793301995485 -0.015116129671890511 0.0037735584810827064 0.0051016123989342695 -0.012649441595225212 -0.05239689711310345 -0.18141892181332295 -0.21431819841958466 -0.09064610235083165 -0.027034422417083027 -0.02424145675720956 -0.044271607462919624 -0.05836768427764726 -0.06145260198204984 -0.024126814913884517 0.012218592544240292 0.037878047994414306 0.024019891793950608 0.00405392221311368 -0.046649215333903156 -0.1116229854018312 -0.1605160594750404 -0.18409262349365155 -0.13828718734487833 -0.043351518935331644 0.03550374947947756 0.03592459712480468 -0.005614608859340217 -0.008070102930193572 0.01158986402701059 0.0027465014842570578 0.003362737032990357 -0.029530557708145208 -0.03994762979864652 -0.11475630901822771 -0.1715542390573723 -0.09365613600194196 -0.023110549330809544 -0.019538801493265645 0.001216212792673979 0.02120883864421753 0.057177857405083694 0.06595591803868864 0.05301983885803782 0.03226824722284684 -0.00034631593543643635 -0.05173278814173703 -0.055383978111932124 -0.09698189663325023 -0.12107100776233062 -0.1099995590087883 -0.05903592285258602 0.010911170227148504 0.04545008888662205 0.05823474338585043 0.010613661374066538 -0.005141974385569994 0.0005304557345523998 0.007659952087776846 -0.008443065428381843 0.002428768299683988 -0.021889739472969957 -0.06780743470641497 -0.09364015657773189 -0.06671240719999406 -0.015309184044090575 0.02650469439204415 0.047052643796835644 0.08663246165555903 0.0733964413870839 0.06398807935306848 0.04889797049229671 -0.009812536912177242 -0.041202118539039434 -0.04150620580129222 -0.04952281315367697 -0.08042600131352104 -0.09306142096048708 -0.06340083901333314 -0.017205781558363043 0.03076588413779804 0.04286781216413647 0.04101988997370498 -0.0033607667483212733 -0.006766047185035146 0.003860055029037137 -0.0017266914796694882 -0.02774873375456444 -0.0001314951270395614 -0.015128602759143898 -0.016720187380737515 -0.045495450631209224 -0.0074666172980522695 0.013168028598398614 0.045644667673369006 0.07382246635830217 0.0828899049577847 0.061831623335663125 0.04478898374166662 0.017408838668894255 -0.024966774210328134 -0.01999322288761749 -0.07003156488885898 -0.05081774029965797 -0.08950032111717493 -0.07202558934998257 -0.03844868687599964 -0.011614957945892275 0.03380710363211806 0.028445175268457985 0.011582656952820064 -0.013001223545505172 0.014838324711309686 -0.0009749162159288693 0.008942113468692874 0.007430592824266709 0.010916432092650153 -0.026157166575672238 -0.012362259186775752 -0.01139659039900744 0.00802557816956702 0.04903133554475292 0.0511202690691334 0.05901409239976225 0.06171957756587217 0.06404156042858919 0.016376133668567966 -0.014844242837876635 -0.006771904242042099 -0.017639251400295562 -0.04834759706027403 -0.04796423792779711 -0.07916292125520934 -0.04883872564559483 -0.04270736375908067 -0.025120054945142477 0.013674839056876721 0.0077570579990094285 0.0005161102823528849 -0.006829216123411536 0.007430091081379756 -0.0008228871678185367 0.007724597880728752 0.007289104784498664 0.009616273896391468 0.002938652919898399 -0.015082006216928496 -0.026255988188270966 -0.00040156534537339004 0.034202951296949106 0.04441828055948304 0.058233658409555064 0.035358119766286854 0.05115701034393121 0.04646156477331656 0.017788379919244965 0.02813963861172849 0.01771062269363955 -0.0275705305169633 -0.035649239293850554 -0.045735867404749005 -0.030471785847943755 -0.010471185892458294 0.013323596656430394 -0.0061106581691472905 -0.013843169122358844 0.007253979346695411 0.010491693471937421 -0.0041739079657842175 -0.0033417461164265395 0.02100300631267836 -0.007443995162834288 -0.0028519654472124447 -0.013612172774187735 -0.01751638186400243 -0.019239461257910036 0.01280414857486958 0.016000793226409866 0.023841916912914464 0.012490978720101626 0.021429951361390833 0.01765590326461356 0.022412311471802344 0.025702963614849618 0.02960023714232045 0.02859656369316655 -1.6914635886962604e-05 -0.016169983560544093 -0.016209388273589743 -0.017009276410179183 0.00967781507572021 0.006068306171636568 0.01967206746231672 -0.004396250087536915 0.010603261492999344 0.0011974686858604764 -0.0054561689430246306 0.009830375052309014 0.00877300643932656 0.013064958800008467 0.0035505284745482265 0.01795972728432273 -0.004591177820543646 0.017126487053866792 -0.0015302182844016089 0.010658783825514582 0.01327250694742854 0.0035804114977274763 0.01447327680370028 0.012215632538399007 0.0196147340599437 0.02798761117506473 0.009212155952118696 -0.006324244940010599 -0.023711387948333378 -0.006530672680712279 -0.0044218728302065505 -0.008271299851965818 -0.009190539239087771 -0.0038958337623344066 -0.000633457456147725 -0.010104998485226778 0.012213497287427247 -0.002877684593847389 0.006392443728353557 -0.0006429771328686838 -0.0199429127007337 0.008266604755254753 0.005337479926032012 -0.0002546703134142746 0.0005378542736854767 0.008508470820682 -0.004321058625699036 0.011023991581511242 -0.0026672932941124985 0.005576719322282667 0.007284941099656565 0.0018746741035594698 0.002078731551215368 -0.016140369404696476 -0.0016974872024423573 0.018876652396575155 -0.013803814111801307 0.0018522047696535478 -0.0005689672752229182 -0.011465912797265977 0.00034267659376570217 0.009526858641337255 0.005570593922701703 -0.005087795915844765 -0.0045001951956063655 0.0011954236140764888 0.01515798509127317 -0.011685822057138926 0.003970239448908691 -0.0010959250014457502 0.011913807968919053 0.014571708928799587 -0.008014107741417165 0.0011720954613787132 0.011644733386167935 -0.014406968599046558 0.0216051475855046 0.0071863693236160165 0.005406208304965306 0.002469977629962422 0.014992723438861821 0.011117785130946904 -0.0037689657515238566 0.00260102566316103 0.025687859297834553 0.00795122374949869 -0.007816297780266731 -0.00363649590363045 -0.0071451239656769696 0.009857190113305719 0.004944978950509103 -0.007927846758345333 0.005143434205688086 0.011566089014264279 -0.0031000019752700416 0.00481898854844897 -0.005398373700326847 0.0005321195660344076 -0.005175950453452386 -0.019985893462520075 0.01375609151401175 0.004348129622361574 -0.019807922039594302 -0.009723911918246328 -0.0035520629584540973 0.0053947802921333644 0.0005722313393854974 0.004254792707282643 -0.009640262633169902 -0.02527486491107449 0.0004492581996178385 0.002755054755321673 -0.010941203641653994 0.005413692011543204 0.0016238392795093729 0.011398191221859495 0.0027962106413865714 0.013341022717685986 0.015217875305314495 0.00932387148568278 0.005961792522374152 0.011634048649111132 0.013519562492410316
-0.0021643856737443047 -0.013936028278187698 0.0014466428493638082 0.011014609444901654 0.005855260181323493 -0.021690031586473323 -0.011810636256412651 0.00777402164957331 -0.0043395921264188 0.0008298655400036757 0.012212831541577443 0.0001440666263404566 0.010539900715652561 -0.0016996400205715782 -0.00039500098793900535 -0.010123835612665995 -0.0020006613551462596 0.0051679803227657126 0.009224463841673356 0.019437021234979004 0.002604070607633059 -0.006871001892599747 0.026210535346028255 -0.015638485388999823 -0.015271594121744727 0.013003595623438858 -0.0057510707035624995 0.015500776969024835 -0.006477709568452086 -0.004269055438032246 0.005152360238193746 0.01588841761728018 0.005395207521008605 0.006798868329136378 0.004786310583566748 -0.0012627185738686671 0.008798416215165826 0.0009110223925341736 -0.009106766913672099 -0.006062473997837735 0.010361792221074603 0.0005272030419517133 -0.008246113416831947 -9.555319683015295e-05 -0.011949022322627597 0.0036603645039668615 -0.005251877076870691 0.013246324472224014 -0.011996008599159889 -0.003927360059564731 6.90255584627485e-05 0.005318220532595871 0.0005848731872514196 0.0017718615599222446 -0.011086573348462496 -0.023838124612585544 0.012557290496213782 -0.013640081774468077 -0.027644821250974085 -0.003968039077818157 -0.023826790012178772 0.002746435717444613 0.006556768347332066 -0.016541467915630815 -0.008328663004195814 -0.002982699700062472 0.004821615711810661 0.0007118784762418973 -0.006934135340513226 0.00797047540571215 -0.006642815049402308 0.01299201776486305 -0.005148251439539968 -0.01695839743011828 0.012710903753157754 0.007230038536289324 0.009173191630331557 0.0118345615130467 -0.0063360064151958264 -0.004028897965864065 -0.0006741150512813834 -0.0014504740675963823 -0.003356094025943111 -0.004319031902120907 -0.003921882424892142 0.022157739072335966 -0.008938938179913973 -0.0006995097683955233 0.007737515324550279 0.021867607066780387 -0.00755471886290915 -0.008464463168816732 0.006633139615374258 -0.007967145599842806 0.0013275772813822347 0.002391109938372418 -0.00025294245867540216 -0.001221137670934942 -0.015446648897977314 -0.005760859815964096 -0.009878175229151225 -0.004409240650438098 0.005382754425027122 -0.01799373443743237 0.0032370944190074015 -0.006102758240103772 0.012273188924451988 0.015346347563975671 0.002175098569536141 -0.005789861431649547 0.018255147443050013 0.019206064429504056 -0.0042527246175824715 -0.010587760760543305 0.01484596757475655 -0.0015235265992062134 -0.004781852208562325 0.00659151046399309 -0.001330511232347397 0.011768060350100024 0.0017787728479469432 -0.006255031533974247 0.01806591511183937 0.012226922650598266 -0.009738563405517051 0.017888837142870484 0.0037718404990574558 -0.0008277696503943329 -0.0010023954467666307 -0.0046896441214097145 0.012481511949564376 -0.0015388634820676388 -0.0032014960926991776 -0.005439667640971796 0.009306217676493079 0.009957049486764244 0.01505294008981876 0.011784068681023045 -0.01415521581922987 -0.0014426152941780658 0.007427506067390214 -0.0016200990569850441 0.009427347848629225 0.0003752974031746618 -0.016302741036654165 0.006331630243388521 -0.01812900350498519 0.0014737483123918953 0.006240035459775014 -0.003987899000723041 -0.005241498418862066 0.01631420609810599 -0.007981937631388861 -0.004028690364115436 -0.006149953034884334 -0.0010261409862546184 0.0006573151482769167 0.0015866521521663505 -0.013169115278913289 0.004992746214964126 0.009799827767952731 -0.006248467418441255 0.0009147892718676838 0.0016372777407630062 0.02424500964704227 0.005510455563986029 0.024504276856640705 -0.020877784890990726 0.009186291684910476 0.001467034060037145 0.015942631169614686 0.0008079785313977059 -0.0018700200853617806 -0.001499664480133909 -0.0012285920114514163 0.01080808725536251 -0.002163540252382461 -0.010192939289275374 -0.015946879352955096 -0.003780017809852904 -0.011127990940085947 -0.012627762670198389 -0.019187800594062446 0.0073286068219008335 -0.016933160239321683 -0.014288925946312436 0.006366748856220383 0.0050148504172078225 0.011932299004779726 9.707117327204508e-06 -0.0007183780988771651 0.001048401592992485 0.004054824016511208 -0.005402321412271765 -0.0017729523763144442 -0.0037812460364741412 0.018388475420971412 -0.008124607714218052 -0.010893242906106305 0.0015395004301485922 0.010781617935906262 -0.02204329023751529 0.004837177387229756 -0.00618937137346393 -0.02272044583716797 -0.00454354449536566 -0.0025051975390806016 -0.01571873497658814 -0.009585738790648661 -0.021457253796097562 0.004692075267578539 0.006827321043363504 -0.0019289614851196308 0.007989970046218956 -0.009072509577176048 0.006535404846513574 0.02010187815311161 0.004047884390732279 -0.009904653087420183 0.005312446229310619 -0.02325719170035957 0.011525900267615678 -0.004507104247778743 -0.0019371912719122917 0.003772415564917403 -0.003767806005588396 0.008850143887750019 0.007834809569599482 0.02123084962503423 0.007600001109657797 0.0021251319507712336 0.0024272198299398174 -0.009710156119344879 0.008003616701335812 0.0008448901751936151 -0.009305248218650808 -0.009438251684937577 -0.0020461437652809075 0.00896899263716311 0.024541054025972717 -0.021346715408175752 0.009754948542853168 -0.022351196953258212 -0.0015206330331726172 -0.0033330270063932407 -0.017365826082696975 -0.019554701664509833 0.005028879250699269 -0.004371747817831441 0.011926265107406986 0.010468074992870089 0.007361191553777115 0.011951064027744597 0.002899674521509155 -0.013232338915266682 -0.00577393645368542 0.003240984587734193 -0.010752003052750767 -0.004265668327332251 -0.004394170136440055 0.01973749613380785 0.002607643736958982 -0.010358562943086227 0.00920270239528681 -0.0035116003662343906 -0.0005147915717855655 -0.008181235505097504 -0.015067843949005316 -0.0017618892334724634 -0.022524600950855754 0.008150639556465833 -0.02891723824476114 0.006042505731301029 0.0028468134767771665 -0.026007525212226316 0.00036187835553231934 -0.00960116657337128 -0.002826877629772934 0.006074618595565072 0.017554006747085658 -0.0016632053020716887 -0.0006133487436273727 -0.0026943915628238934 -0.008450763522831474 -0.01685816486775842 0.006715424627499161 0.0035418752822232225 0.0021475183460954667 -0.001110498670119265 -0.006785233318715948 -0.006297472403306806 -0.0021876348876043537 -0.005610275621561812 0.013548228986192791 -0.00551474408589915 -0.0032301608474701545 0.014345831339673994 0.003264273158960139 0.00759255111139392 -0.007859540360654177 -0.024212634296263625 -0.024103589970808633 -0.0053244555752377295 0.018142853477716932 -0.012484516644656232 -0.0204011886077987 0.000402798542131514 0.005815724346155289 0.004814653763812977 -0.010514199278024102 -0.0008321529105609543 -0.00017409377406057736 -0.0030696793368692886 -0.010712056313581367 0.0004596199484993138 -0.008083191745295044 -0.006127281431230393 -0.01930997532047055 0.009747583549660915 -0.01731100106661235 0.00295228177806787 -0.014101820732455568 0.004234160128315654 0.0014425110745821328 -0.01670724044690726 0.026962700519773217 -0.0016594565143806998 0.002467220226132421 -0.01207874366403323 0.008361768423167043 0.013804466633218123 -0.005898290028086622 0.013130362670545704 0.011391774699373029 -0.004678556928760381 -0.012234127466121689 -0.0004702846353342258 0.009491119202297562 0.0025253840852735585 0.008873770236749349 0.011527623136455353 0.015316073035349485 -0.011817850970014627 0.0005319278387888899 0.0025686117002015384 0.004436065269595151 -0.02048654355017162 -0.00963422952180721 -0.010879992110696467 -0.00142324497062689 0.00214519537959637 -0.002498508804577094 -0.011803480755474365 -0.012885018475160062 0.005254068810294425 -0.006620503273285226 0.0030347160333693926 0.018174787504492706 -0.01714008177280246 -0.011094477464532472 -0.024579688228068698 0.011761010003929689 0.0007539669765105286 -0.0037103012946054425 -0.0014065039700279747 0.003779835245341963 -0.015771019709081614 -0.006068292623121836 -0.014057591947585962 0.0028267953594083564 0.01973766494780344 -0.0029632727551228066 0.009026366410718469 -0.00493539074962932 -0.009662467761635853 0.0008636701077167825 -0.0014114973748034125 -0.006863611438975992 0.009012149793288536 0.014172886768870591 -0.008857100359808858 0.0017804639605663434 -0.004783133673101747 -0.02460271493050578 -0.014218367400810547 -0.004920287574333564 0.0035865648092312176 -0.008703764735664444 0.0032027373952430113 -9.93641206953856e-06 0.00474154124239951 0.0004201667913194221 -0.0016554858168597304 0.010189687738141932 0.0016957802125689946 0.011936700469726896 -0.00866310053340508 -0.005452006665864819 -0.006705393674266227 -0.013368074100744507 -0.006183493889917513 -0.016959065085249716 -0.0018369663894390036 -0.00937646771007419 0.004501506026395534 -0.012389195051923601 0.0005414676812403187 0.006603245600865996 -0.003451138060718405 -0.009993768682582806 0.004249686850298826 -0.01909018773885035 -0.006052254776676295 -0.003730157971683392 0.0036936894821736044 -0.008444349255393627 -0.016937386878301947 0.012655743104231166 0.026626748623112075 -0.008813879751938121 -0.006598052989422561 -0.011518473964544265 0.0073997300734499356 0.006571374796613666 0.0013857980940919167 -0.013389926747247715 -0.0034281077768483752 -0.0021050500662882538 0.008539196758300532 -0.009705932214610052 -0.0074654683721461345 -0.012409679942359659 -0.003652783802619046 -0.010364136226135459 -0.006303936876773372 -0.018794678236623976 3.5452397502841175e-05 0.004351027912153139 -0.011504259074760317 0.016687647244281647 0.011533760594868265 -0.01747586896271435 -0.01081641234318574 -0.01560104780164186 0.005335559580340744 -0.003474641552411928 0.016088341751803285 -0.006466333865880662 -0.0020642373372597935 -0.013004135449931432 0.00927304153864365 0.007190823773012771 -0.002013207492586326 -0.011198629331803628 0.0023055800050345563 -0.019065285858439376 -0.00551301826253736 0.0019146977501195955 -0.001699047195932642 0.003141636245038344 -0.016636479139707835 -0.006414366301268252 0.0010808944473171683 0.0028116752431544007 0.0011352199238599111 -0.011014611266256783 -0.007162920604270123 -0.00611246857937115 -0.017620991371147397 -0.012134637921280342 -0.013525582918453584 -0.011237643503477463 0.0006543207283109946 0.011141725783101991 -0.010639983585691409 -0.011502620401809882 0.025740776500117326 -0.02117691765069274 0.010961533694910123 -0.017732823199473086 0.005292044592375546 0.00749039744185844 0.010601610710938921 0.008032551817321104 -0.0029363175092817877 -0.001387839375819752 -0.0176812521586524 -0.0071507892343401274 -0.01056105307112785 -0.0068795079478919 -0.0029234130246499892 -0.007109097284116581 0.005357815610154812 0.012413518394753013 -0.005473156735899383 -0.008854977353006058 -0.013269963705737551 -0.00463316525083354 -0.010273618459358005 0.0033869351667059353 0.0007437443971575397 -0.004907837939152209 0.004168304695984048 -4.776315456899339e-05 0.007940334323061524 0.0049070770302891585 -0.007021271652783565 -0.012497966010910504 -0.002494074558782279 0.013085771784837795 -0.0017202095690185854 -0.002573369747702715 0.004770107136168462 0.010326207651902375 -0.010148172667357491 -0.01365073583119679 0.00887890214111593 -0.002247908382254844 -0.006215124409215387 0.021772131615491123 0.00931258169894617 -0.012725411615568269 -0.015886070510885458 -0.029365681713647954 -0.008294707870904068 0.007546558541066906 -0.006735948694994375 0.0025404925519100095 -0.010337013571810445 -0.0005700240434770978 0.006365522363839089 0.015930163090414232 0.007880785728462935 -0.0018320426772423513 -0.00853386769575316 -0.020110064016984498 0.0025724048532233547 0.001541648002986192 -0.002065371685938861 -0.01058562471706759 -0.016799439931314095 -0.00551560439662195 -0.01355834690824687 -0.003821845176153647 -0.0004368366884244469 0.0034634875885670878 0.002134234885731445 -0.005827255213825454 -0.015499738191289124 0.005827859229766929 0.001701779841113616 0.0052912468674021895 -0.012497433445943966 -0.004836108465883655 0.0012160312958641184 0.018798406979858386 0.009710453428617255 -0.0038908677522594033 0.00030215545841682297 -0.00942572040136615 -0.0028565380535084347 0.0063380968608551256 -0.005444074175698257 0.006243381529984552 -0.010385799746508015 0.00040212754373448084 -0.020219665417732704 0.010183946095638665 -0.00021593763973738988 -0.029730647506679093 -0.006828167331085302 0.009947844061841474 -0.004102308169310428 0.0026882896338166476 0.019205532052255683 -0.016558856082126868 0.010580991749190643 -0.005967100169736236 0.003607446092407705 -0.000737456510298373 0.0032927599931946968 -0.002136934020894685 -0.008144831273926989 0.004725414336703228 0.0038132028887014092 -0.009775313977217976 -0.0038952287585499517 0.007204767940088452 -0.017352085116177356 0.00040083698346418813 0.00033501876979097497 0.004364734898222539 -0.012599497413488526 0.0014373965857684004 -0.006691243365846897 0.007888838714594743 0.015414899567975935 -0.02568689925468742 -0.0012010173679982508 -0.005418234984889107 0.00022903055609080724 -0.0021249845276590292 0.013962720887236635 0.02030695612668905 0.010659080845202649 -0.009145669323101195 0.003746006910623578 -0.0007555644777196965 0.005861918492566041 0.00381905478359422 0.02659793730307772 -0.013787950409735357 0.00215324581648722 -0.006682979806412962 -0.006113531254163376 0.022983312858371945 0.0006559862073752817 0.00039342038339992955 -0.006850260783833859 0.007214332497245934 -0.006818563296839803 0.004577528586224092 -0.012498023083733663 0.012890405294163076 0.02001834016816708 -0.01592257056872706 -0.0012998923962618191 -0.004400448906804371 -0.0004958654940432736 -0.0018918142529028511 0.011803405412802434 -0.006483994028930344 -0.016103886019390185 -0.003795836505095431 0.0006155794280838047 0.00855960862530327 -0.006852725902254388 -0.0013895076491999066 -0.004853871447659226 -0.02946108471377117 -8.288931226638831e-05 0.009375331301537332 0.004488063425994083 0.006682776442947604 0.016670348559222385 -0.001225185793686187 -0.007095713724464175 0.0035369782217806946 0.007177372835779328 -0.0020874844297899937 0.005159351823110853 0.008384215717445683 0.018377638601430088 -0.0029916125794677015 -0.00714594204498231 -0.00826639852186805 0.0074778002253083915 0.014549675897936473 0.00827750978717086 -0.004806133103559061 -0.014965817237140541 0.008423331750737504 -0.006481913530385245 -0.021190908784411194 -0.0012456163597897943 -0.0038892299360950284 -0.006101564872628033 -0.006473197978204307 0.0005822643414415896 -0.014177628805582208 -0.009280423489346155 -0.00679672652695265 0.017463281926300322 0.006938497076742048 0.0064388531491980615 -0.009071689225586451 -0.006284585420936086 -0.008453073347622854 -0.016366934385453176 0.008245592589806278 -0.013582838719570242 0.005691636375785199 -0.009877140509346903 0.0066076598051639625 -0.014823581193202429 -0.017633752357713427 0.004121361740887279 -0.0044520590548266905 -0.0005511293784962044 0.008931679081241298 0.012950874906008067 -0.01903947467348265 -0.0018470865686857712 -0.004734433246277416 -0.0033678707928472777 0.006083298140170687 -0.013341560233236219 -0.008908774391500302 -0.012197225627749438 0.005057141888212986 0.0046742502696990405 -0.016412277446844183 0.002496994196598912 9.736815100713919e-05 -0.0027813055527128767 0.006687600329437027 0.004867110811750343 -0.006812272536446225 0.0001164287337469551 0.008173783595462579 0.014983995818618213 -0.007402715639048979 -0.0009370358153229251 -0.0025736341039465393 -0.020327253793647825 0.01512333698151991 0.007944361179894072 -0.002285573358610196 -0.0010017966747642652 0.0036848386719748136 0.008537900603652358 0.0014092046747984936 -0.0063062810114653325 0.013460794108132616 0.021079187169390622 -0.004027876948873154 0.004785346799177185 0.016933785676319833 -0.009450098125518908 0.007772304728279171 0.006147295620810098 0.002147838318077029 0.00421881356970162 -0.007060722186193299 -0.009165032953672356 0.009808862846505638 -0.0018130550246553286 -0.004686788064325709 0.0062784050857376565 -0.0029720378406010717 0.012092819621947352 0.008836218230922052 0.00033412744813682017 -0.0003039864290565813 -0.01681244242398134 0.001857292906475318 -0.0020846576541518197 0.0072542796306302205 0.006411053297742194 -0.00020902727047605646 0.0026093468792370597 0.02519988518527093 0.010352164231504726 0.011426090810977974 -0.020204612484155674 -0.011208855190943688 0.014525010423663576 0.0013063936296245273 -0.0003302572008124928 -0.006651069107943083 0.0025800504453123187 0.0043145042142161616 0.0024102360255658694 -0.0058212241040082515 -0.008107096887996183 -0.008031495314944034 0.008923217655894485 -0.001353845119927756 0.004574030043973575 0.006269425987518459 -0.004827370599068378 -0.0009861594589932637 -0.01250318712339448 -0.003789370621073186 -0.011972093267586468 -0.012227239959140442 0.004286353317793622 0.0042636041854827314 -0.0036975451793650783 -0.014564385952041068 0.011898517554704263 0.00017239157874484942 0.008180165676759452 -0.007408151884605485
