[0, -0.33700478549319846]
[1, 0.11721353302419724]
[2, 0.3445791065061764]
[3, 0.1536342890273017]
[4, -0.12805680485883686]
[5, -0.4477332622100456]
[6, -0.2961600487878502]
[7, 0.341987490640586]
[8, 0.3423404267174225]
[9, -0.022621612254054346]
[10, 0.06280516210096598]
[11, -0.1608691267475959]
[12, -0.08653899014457811]
[13, -0.10748488954211788]
[14, 0.061652093738201796]
[15, 0.13090742156426527]
[16, -0.2812930633180388]
[17, 0.18817451590831835]
[18, 0.08279654777309087]
[19, -0.25822797618044946]
[20, 0.47048117103361453]
[21, -0.13139657212161715]
[22, 0.48441677372035297]
[23, -0.11838132621742514]
[24, -0.3807480558402615]
[25, 0.4373757059820841]
[26, 0.4873235112474531]
[27, -0.26495846835558756]
[28, -0.4591750202185222]
[29, -0.20114163796809637]
[30, 0.4078656711130779]
[31, -0.19071518139532417]
[32, -0.20722839904043844]
[33, -0.06434843067166773]
[34, -0.042231865776752864]
[35, 0.35232244181317063]
[36, 0.4384117331570305]
[37, -0.40653740970377494]
[38, -0.21642285114335247]
[39, -0.021145381813428843]
[40, -0.06944500006876608]
[41, 0.06696055764395292]
[42, 0.09095032496794231]
[43, -0.15422567430279988]
[44, 0.09881344205014353]
[45, -0.07745931459574384]
[46, 0.3586615161857567]
[47, 0.36787904617919354]
[48, -0.4824787103220689]
[49, 0.037037981466014]
[50, -0.28181495357299124]
[51, -0.3475097813275607]
[52, 0.2639308174230419]
[53, 0.49876304500068325]
[54, -0.44665811760446805]
[55, -0.44463510128195194]
[56, -0.28221486684408714]
[57, -0.23959630616074523]
[58, 0.45330090437390214]
[59, -0.4542058290197538]
[60, 0.1661287171552155]
[61, -0.44323252764894994]
[62, -0.47792898460769706]
[63, 0.1596412869640269]
[64, -0.31632023208278626]
[65, -0.25539114988758127]
[66, 0.27767568432334255]
[67, 0.30147299788661885]
[68, -0.47136521719486857]
[69, 0.4173604031815986]
[70, -0.035753638100160634]
[71, -0.18244055313399532]
[72, -0.27421832763677134]
[73, -0.3950482573691806]
[74, -0.09180977750987451]
[75, 0.4737657166409852]
[76, 0.19050410816858188]
[77, -0.40489844572965195]
[78, 0.0362035757153355]
[79, -0.35391731176710806]
[80, 0.39806041054790076]
[81, 0.33540182013724895]
[82, 0.08300084774263872]
[83, -0.11607202623565116]
[84, -0.1776275227034556]
[85, -0.30594070084320857]
[86, -0.10256337810122107]
[87, -0.4520795461246565]
[88, 0.20737741392536702]
[89, 0.179616381228616]
[90, -0.027889610687605648]
[91, 0.1815832713516028]
[92, -0.2935759611037052]
[93, -0.39198775173083533]
[94, -0.02239767061913034]
[95, 0.05836945471944299]
[96, -0.433110010122005]
[97, -0.0027035779898204604]
[98, 0.4820299832679653]
[99, 0.03763433963047347]
[100, 0.13746677862664314]
[101, 0.15826842902600113]
[102, 0.4928376950301816]
[103, -0.3636045074585935]
[104, -0.43276331278038105]
[105, -0.2046513936860369]
[106, -0.03096986605896035]
[107, -0.48185939839805125]
[108, 0.21150157720170448]
[109, -0.2923018674307186]
[110, 0.38738965288193483]
[111, 0.01461235475334266]
[112, -0.1993082843960564]
[113, 0.3251525166417879]
[114, -0.4532206675503372]
[115, -0.42646704220547327]
[116, -0.023377783132459196]
[117, 0.4283843304927062]
[118, -0.2399224607793916]
[119, -0.16057165772562465]
[120, 0.00215329299240552]
[121, 0.0035605503550922846]
[122, -0.3985189410689379]
[123, 0.08253000586934203]
[124, -0.5593360343130427]
[125, 0.03239950744191188]
[126, -0.7543282368045147]
[127, -0.127748828313521]
[128, -0.35996321886560967]
[129, -0.37205077542406234]
[130, -0.030044347413034217]
[131, -0.5249798924158322]
[132, -0.0064921115971208095]
[133, -0.28619625342613453]
[134, 0.24075418942468607]
[135, 0.4460276825373066]
[136, -0.1553528494010048]
[137, 0.42085833877485046]
[138, 0.2776413228438088]
[139, -0.011287823018464538]
[140, 0.22341865490002732]
[141, -0.07801185586772397]
[142, 0.2159981064888028]
[143, -0.3113678668845221]
[144, 0.2117499566810639]
[145, 0.16892438936028042]
[146, 0.14286871829365122]
[147, 0.2793480360019335]
[148, -0.23427733113273094]
[149, -0.06593806535163213]
[150, -0.43376410914729346]
[151, -0.6580871912052239]
[152, -0.523630431247281]
[153, -0.14493944501424283]
[154, -0.9838902959812267]
[155, -1.016368933212818]
[156, -1.5176347982644243]
[157, -2.0659753101994847]
[158, -1.3310676207921348]
[159, -1.2993832203592295]
[160, -0.33877019311666584]
[161, -0.05759500154865089]
[162, 0.02345017974482181]
[163, 0.4808693926084908]
[164, -0.08302391668074882]
[165, -0.41396395111557815]
[166, -0.4540956575926097]
[167, 0.41964274263517]
[168, -0.4708984899441716]
[169, -0.40950307114747253]
[170, 0.17048845043464922]
[171, 0.1502619027926746]
[172, -0.08535253557541345]
[173, 0.4739878992357158]
[174, 0.1602366874444105]
[175, -0.11956843406250431]
[176, -0.49900162440257556]
[177, -0.09302461008208887]
[178, -0.13142644489289282]
[179, -0.15093580851595423]
[180, -1.0464504538554433]
[181, -0.7955670158364015]
[182, -2.0784346061361743]
[183, -2.1230665757621248]
[184, -2.22524850653615]
[185, -2.6221331427092447]
[186, -2.4635384391913435]
[187, -2.1352674374034035]
[188, -1.7000473133562057]
[189, -1.3346228266010653]
[190, -0.618810133085063]
[191, -0.0720836382090896]
[192, 0.42128377976421816]
[193, -0.37421165050921756]
[194, -0.06953713776430337]
[195, 0.16370936429650307]
[196, -0.2322503985771195]
[197, -0.49162366965072757]
[198, -0.40583883188208336]
[199, -0.16535104146979585]
[200, -0.11224598410291661]
[201, -0.057652763923188646]
[202, -0.5477225995055088]
[203, -0.716124983590664]
[204, -0.14172474051687048]
[205, -0.07507553706818881]
[206, 0.6907013564950608]
[207, 1.0831729673681814]
[208, 1.3484945099161578]
[209, 0.6314385662047529]
[210, 0.15533896272833578]
[211, -1.9255580715103688]
[212, -2.6372341041757132]
[213, -2.683269266469133]
[214, -3.477226312528365]
[215, -3.9181002419865485]
[216, -3.0645863891849507]
[217, -1.6047683759879203]
[218, -0.4721774981092586]
[219, -0.11482835667145891]
[220, 0.4473452024749909]
[221, -0.14536534757222092]
[222, -0.4813823143924858]
[223, 0.32533778810770086]
[224, 0.2648283802662649]
[225, 0.46373340622643233]
[226, 0.32956502280918043]
[227, 0.12942022758448457]
[228, 0.2452194580191419]
[229, -0.7049158891900676]
[230, -0.8918730742554952]
[231, -0.6917259721261391]
[232, 0.5241449712252518]
[233, 0.8469280492448059]
[234, 2.1586252257672336]
[235, 2.33712590729875]
[236, 1.8172220122473912]
[237, 1.6460983647604857]
[238, 1.429630696835836]
[239, -0.07525996403892637]
[240, -1.8581078868195322]
[241, -3.7582620680753243]
[242, -4.321209112249824]
[243, -4.381215314306717]
[244, -4.421728741578201]
[245, -3.012966729595096]
[246, -2.4654835501202372]
[247, -0.9432324961338672]
[248, 0.2381452017249671]
[249, -0.22896867881336339]
[250, -0.34942391140850565]
[251, -0.0354850039584913]
[252, -0.414161181597576]
[253, 0.05807299128017107]
[254, -0.45344435531460103]
[255, 0.48550144203087275]
[256, 0.24579275372670514]
[257, -0.6262880990590759]
[258, -0.8838463222478045]
[259, -1.0248101801730378]
[260, 1.5600680658426462]
[261, 2.6554271425113893]
[262, 1.647467565027922]
[263, 0.739311325782759]
[264, 0.1672029387187721]
[265, -0.06230620532547598]
[266, 1.4246693139150126]
[267, 0.9814340862012424]
[268, -0.3718089156014678]
[269, -3.0913027068487064]
[270, -3.8087726885091473]
[271, -5.446705471698552]
[272, -5.154120609785112]
[273, -5.544047525934531]
[274, -3.0574952309166195]
[275, -1.802984590016163]
[276, 0.419967447197778]
[277, 0.8970277036073963]
[278, 0.521025470014784]
[279, 0.1682135432055959]
[280, -0.1772976069593044]
[281, 0.008474236841201965]
[282, 0.0448488776641941]
[283, -0.36126845931154017]
[284, -0.7111394632707589]
[285, -1.0546152952685341]
[286, -1.6634953815116478]
[287, 0.019485527292749785]
[288, 0.999194639729993]
[289, 1.371720911150684]
[290, 0.33536538970095703]
[291, -1.2125506781070672]
[292, -1.313266375053867]
[293, -0.4686299596727862]
[294, 0.6867079229271684]
[295, 2.4938341481221125]
[296, 1.990892551483753]
[297, -0.2969436697335691]
[298, -3.0282741329121152]
[299, -4.679241241845202]
[300, -5.472164140461511]
[301, -5.75811466658383]
[302, -4.381511559632129]
[303, -2.2040102033929454]
[304, 0.005843164968361014]
[305, 0.5626414600089705]
[306, -0.05118475490651206]
[307, 0.1021422921666243]
[308, -0.4978284574610269]
[309, 0.17208043922302962]
[310, 0.20081441349760898]
[311, 0.0986554381861936]
[312, -0.5682020964501371]
[313, -1.1719671956502506]
[314, -1.8586574070083297]
[315, 0.008610472166785815]
[316, 1.122643839109604]
[317, 0.20929419918508038]
[318, -1.588642344516461]
[319, -2.1364085493389107]
[320, -2.1280270707198787]
[321, -0.3441166769629136]
[322, 0.9377774324393198]
[323, 3.5628553677942962]
[324, 3.9976056100664916]
[325, 1.7752778266394056]
[326, -0.8648405542991928]
[327, -3.1211147375281274]
[328, -3.650651609969256]
[329, -5.319478757936342]
[330, -5.308757735378719]
[331, -3.157138943259925]
[332, -0.7320899131359742]
[333, 0.33311530639259584]
[334, 0.4909090861607167]
[335, 0.1259960056351609]
[336, 0.07039175729326175]
[337, 0.07654768272478818]
[338, -0.10356186463699979]
[339, 0.2434223469276926]
[340, -0.9041176914171651]
[341, -2.6074943401424324]
[342, -1.5611764438522544]
[343, 0.9753498928164662]
[344, 0.7448227692137468]
[345, -0.5972731787374048]
[346, -1.6678643954836556]
[347, -1.9540355880517208]
[348, -0.9822338672614626]
[349, 0.9653431715499394]
[350, 2.6079132890180077]
[351, 4.426744051442027]
[352, 4.913859344557557]
[353, 3.0992864238679667]
[354, 0.9071180014523023]
[355, -1.1745468935182277]
[356, -2.2050916874699946]
[357, -3.9537437979280203]
[358, -5.359850126765942]
[359, -3.859314842385022]
[360, -0.09258760119518587]
[361, 0.7239366615350372]
[362, 0.33159294730825695]
[363, 0.3581703885522076]
[364, -0.33632233391382527]
[365, 0.29104000400160124]
[366, 0.1607843713232362]
[367, 0.4677984011600461]
[368, -1.7340577965721167]
[369, -4.161410235343257]
[370, -1.7874576475921045]
[371, 1.2350464765589753]
[372, 0.6799005067207287]
[373, -1.612090463856365]
[374, -1.6925859430836776]
[375, -0.8331724010498712]
[376, -0.053912020295523555]
[377, 2.4434003314134976]
[378, 3.585545525683227]
[379, 5.495965842645308]
[380, 5.20254314739983]
[381, 3.666839042356298]
[382, 1.0770721021189362]
[383, 0.31834442357447434]
[384, -0.8798512068376445]
[385, -3.691622761601014]
[386, -4.825724456072755]
[387, -3.4820972469879696]
[388, 0.9335840417693748]
[389, 1.762548352541807]
[390, 0.209738330024204]
[391, -0.1535152283962814]
[392, 0.35791558065669005]
[393, -0.15183396356638368]
[394, 0.4602181268520823]
[395, -0.13091003070548746]
[396, -2.237352723829275]
[397, -5.25345887219391]
[398, -1.644376338106742]
[399, 1.439325029300289]
[400, 1.791068985144154]
[401, -0.8572020287016904]
[402, -1.4202763321534484]
[403, -0.3729214822342126]
[404, 2.311021537312665]
[405, 3.9105835231626807]
[406, 5.422803074925026]
[407, 6.455541322954264]
[408, 5.517018137943357]
[409, 4.138648070851308]
[410, 2.282279492645451]
[411, 1.8320698081726936]
[412, -0.7205357043213225]
[413, -2.800048282436855]
[414, -4.583970392276747]
[415, -2.4993089433044915]
[416, 1.6879689483448421]
[417, 2.0300397248382525]
[418, 0.34793358485942916]
[419, -0.169104665567276]
[420, -0.46058213662620195]
[421, -0.23829486015201917]
[422, 0.00028011649423820284]
[423, -0.40123011593458024]
[424, -2.5664756003249036]
[425, -5.023170702967107]
[426, -1.5918547880124627]
[427, 2.3450173139679698]
[428, 2.5562890915496284]
[429, 0.9296838847729063]
[430, 0.48109528418778547]
[431, 1.360377860681466]
[432, 3.0282589626416283]
[433, 5.09464757321668]
[434, 6.620418313230168]
[435, 7.689034803673951]
[436, 6.240162181359691]
[437, 5.60956804653156]
[438, 3.818924939609316]
[439, 1.5239035062813897]
[440, -0.8967834065029662]
[441, -2.1834830450270046]
[442, -3.3649272292974803]
[443, -0.5135504938879781]
[444, 2.466444714353808]
[445, 2.7890801468862927]
[446, 0.30183836786257523]
[447, -0.44361048032535516]
[448, 0.33514612372896857]
[449, -0.30479272801168744]
[450, 0.2918688296985691]
[451, -0.03392360124121013]
[452, -2.265582185559336]
[453, -5.311074112635597]
[454, -2.9945508327294443]
[455, 2.215719757965195]
[456, 3.2869324489373786]
[457, 3.2718453220031156]
[458, 3.7746289572251723]
[459, 3.9805270626871834]
[460, 5.619378346251896]
[461, 6.609516599377706]
[462, 7.386171491563674]
[463, 8.192656506612574]
[464, 7.151967860726832]
[465, 5.600289998519622]
[466, 3.792644782433159]
[467, 1.0641500695689157]
[468, -0.7117790292503205]
[469, -1.4753292376099267]
[470, -0.3824699695801308]
[471, 1.9600448073704113]
[472, 4.3982808727074945]
[473, 3.413091005512633]
[474, 0.7874161891237546]
[475, 0.33974853251048504]
[476, -0.4621342258322011]
[477, -0.06523035757315387]
[478, -0.4798745463388847]
[479, -0.04898367270031949]
[480, -1.6298876134783904]
[481, -4.711435814308531]
[482, -3.8801980187771066]
[483, -0.45592550926696157]
[484, 1.4243893629733269]
[485, 2.8633735583938704]
[486, 3.5820913479698806]
[487, 5.401506985963964]
[488, 5.857283482418054]
[489, 7.089732858019751]
[490, 7.044695709714971]
[491, 6.258257582649507]
[492, 4.835226436487475]
[493, 2.6178230358359476]
[494, 0.5683840723859378]
[495, -0.5750454103771424]
[496, -0.9199457374081541]
[497, -1.5436258816989712]
[498, 0.6464693963422123]
[499, 2.321443418911479]
[500, 4.100704316168771]
[501, 3.1187650081029434]
[502, 0.9391527952224155]
[503, 0.027904209327268004]
[504, -0.14845830974034524]
[505, -0.4779598413885603]
[506, 0.29886946720110474]
[507, 0.4438024111673118]
[508, -1.1713883311652293]
[509, -2.475092138196673]
[510, -3.856515232704423]
[511, -2.8150243188139012]
[512, -0.5447903400371402]
[513, 0.8917147977405744]
[514, 2.301482770402532]
[515, 3.0722634217736573]
[516, 3.9955461719837126]
[517, 4.186499358324466]
[518, 3.9938296604260897]
[519, 2.9895132755419502]
[520, 1.0000117297131692]
[521, -1.0889369545667245]
[522, -1.7871340896175627]
[523, -2.954635375798146]
[524, -2.8838503843850787]
[525, -1.1103763572459708]
[526, 0.03716692984532252]
[527, 2.2303121979867235]
[528, 2.559337881146671]
[529, 1.581146097859371]
[530, 0.6560780575160563]
[531, 0.23732070668115346]
[532, -0.0976943105903555]
[533, 0.1894852506464898]
[534, 0.4529945400572205]
[535, -0.1703656122977757]
[536, -0.31938003119072733]
[537, -1.9172963477772595]
[538, -3.3230211512745544]
[539, -3.117053840913849]
[540, -2.549938292803419]
[541, -2.168706649045354]
[542, -0.8092737976614481]
[543, -0.8573793403676306]
[544, -0.14624270839428355]
[545, -0.9111286528103262]
[546, -1.3573635285016274]
[547, -1.7769395917332014]
[548, -2.2868524364755]
[549, -3.135745087647924]
[550, -3.3606777454400856]
[551, -4.348247105207417]
[552, -2.3330785812911996]
[553, -1.124400449720415]
[554, 0.7528975221109149]
[555, 1.5585122726559082]
[556, 1.7874244720383194]
[557, 1.5603359995059347]
[558, 0.05323663523460165]
[559, -0.33764311518445234]
[560, -0.024905530779316343]
[561, -0.10786193899471996]
[562, -0.32349016514530027]
[563, 0.365069530501431]
[564, -0.11284672688639807]
[565, -1.0079618411547906]
[566, -2.126871715537191]
[567, -2.8082596204320835]
[568, -3.2809790832561827]
[569, -2.6217432553413182]
[570, -2.1698725929975127]
[571, -2.5507742635640756]
[572, -2.686777788532074]
[573, -3.190222932767754]
[574, -3.3071693831687705]
[575, -3.477886017285155]
[576, -4.214307502339623]
[577, -4.851269742737104]
[578, -3.610797203739497]
[579, -3.714261868867114]
[580, -2.2063571052653446]
[581, -0.8163856432868102]
[582, -0.07797403358903891]
[583, 0.5017454708559236]
[584, 1.063943807946589]
[585, 0.30205015154183984]
[586, -0.10695415427521768]
[587, 0.21432633415605284]
[588, -0.2700326265535572]
[589, -0.19711271289352694]
[590, -0.07037691443792282]
[591, -0.2460346409473969]
[592, 0.16235770877802644]
[593, -0.840031614346011]
[594, -0.6237105222242728]
[595, -1.5026520540954562]
[596, -1.9160806416592726]
[597, -2.5734799552476124]
[598, -3.2691140288925244]
[599, -2.8789315142076233]
[600, -3.5654511277135805]
[601, -3.7115895316177454]
[602, -3.5733473693351656]
[603, -3.408776446375229]
[604, -3.8435967392640293]
[605, -3.697642095532631]
[606, -2.8211028404617524]
[607, -2.032032287507559]
[608, -1.1845578572500588]
[609, -0.1756287788819459]
[610, -0.12732158821192868]
[611, 0.5794832518694204]
[612, -0.04200402043120936]
[613, -0.1678075069508063]
[614, 0.36141169992579103]
[615, -0.2120050965612601]
[616, 0.25720824021209177]
[617, 0.3247968770581634]
[618, -0.19663369170338618]
[619, -0.47299080277096595]
[620, 0.2277515756131404]
[621, -0.18185333585597988]
[622, -0.7210086868529346]
[623, -0.7721982615290368]
[624, -1.325699653248031]
[625, -2.1823130969642124]
[626, -1.814919319453776]
[627, -2.3959731565613116]
[628, -2.8030478727631025]
[629, -2.8954079907694186]
[630, -2.7853708989735413]
[631, -2.753433105382866]
[632, -2.685151021481275]
[633, -2.9014585071951142]
[634, -1.972830217253512]
[635, -1.248733024707945]
[636, -0.05289421137637236]
[637, -0.41869920681287365]
[638, -0.05398138147201864]
[639, 0.14102280229404504]
[640, -0.49690268187785935]
[641, -0.10295188131096422]
[642, 0.12370626133480178]
[643, -0.4374999172655535]
[644, 0.4982498482219816]
[645, 0.15901381389971292]
[646, 0.15442084026863345]
[647, 0.13388660267692865]
[648, 0.3864374819719546]
[649, 0.2561448839445248]
[650, 0.13651217662086845]
[651, -0.07738755203850292]
[652, -0.2980580670482883]
[653, -1.3240893716741176]
[654, -1.0692020181444721]
[655, -1.8992430200462171]
[656, -1.88460057459864]
[657, -2.385434856684257]
[658, -2.8586711764485115]
[659, -2.4586040896214514]
[660, -2.17103066052483]
[661, -1.6087111445691595]
[662, -0.5546220534327838]
[663, -0.7544155411992317]
[664, -0.31661345769540045]
[665, -0.3114685630454049]
[666, 0.3122787903260862]
[667, 0.08368916378879876]
[668, -0.49502400762312193]
[669, -0.3614418262792849]
[670, -0.06428040625434739]
[671, -0.28539077100019417]
[672, 0.287226342488228]
[673, -0.022193957396850705]
[674, 0.44263280858035137]
[675, -0.43726073392402554]
[676, -0.13676110834347377]
[677, 0.386323638711631]
[678, 0.010084745709960152]
[679, -0.3149353222295964]
[680, 0.1414811165679842]
[681, -0.5475127620760675]
[682, -0.004815297268776921]
[683, -0.4728314383746671]
[684, -0.7176386417824067]
[685, -1.1997576736823914]
[686, -1.2277958044826751]
[687, -0.8628558356262244]
[688, -1.177004231378578]
[689, -0.40718312632859416]
[690, 0.22765707051174466]
[691, -0.3548474872255291]
[692, 0.3495721165307579]
[693, -0.029979542080739274]
[694, 0.010798604151148194]
[695, 0.025011448031100003]
[696, 0.27081472809821017]
[697, 0.2892900236025685]
[698, 0.3943515243543253]
[699, 0.10675526357774512]
[700, 0.43649104398746497]
[701, 0.4055403102648698]
[702, 0.449675400455006]
[703, 0.17939218611772312]
[704, 0.3022550951205132]
[705, -0.46782180889240776]
[706, -0.0697396235758817]
[707, 0.11259740556460185]
[708, -0.31853232583426194]
[709, 0.19542916689667533]
[710, 0.07410555561661358]
[711, 0.29303688728344396]
[712, 0.3281685160547572]
[713, 0.043878100351341334]
[714, 0.048095485882858655]
[715, -0.5199228624743674]
[716, -0.5513801362717243]
[717, -0.27744230896616195]
[718, -0.32327982240469555]
[719, 0.06852320051558825]
[720, 0.440312785090044]
[721, -0.2418725023803131]
[722, -0.3337197391530865]
[723, -0.2988029955804906]
[724, 0.36285729340805595]
[725, 0.3016070467901595]
[726, -0.18337930737632702]
[727, 0.48228665401898074]
[728, 0.218963004372544]
[729, 0.40215735550326415]
[730, -0.2549188795816707]
[731, 0.1288439708956708]
[732, -0.462801322986239]
[733, 0.45821822191595185]
[734, 0.209627882791666]
[735, 0.31111839451343126]
[736, -0.2105101925162841]
[737, -0.4916102347379028]
[738, 0.3652122259653615]
[739, 0.2937108569787732]
[740, -0.018045057011553123]
[741, -0.13179318866465828]
[742, 0.11951060046951345]
[743, -0.0726185494547994]
[744, -0.15181539753932682]
[745, 0.4028871052023041]
[746, -0.47243636188034477]
[747, 0.2783726643084018]
[748, -0.11685966287772431]
[749, 0.3357211728279702]
[750, 0.011653363292134289]
[751, 0.302769501204911]
[752, 0.16292710901883412]
[753, -0.1427771376884731]
[754, -0.2809699228625514]
[755, 0.1521576392273073]
[756, 0.2271499590437447]
[757, 0.15488588987271779]
[758, -0.1926076238682366]
[759, -0.24808578428616657]
[760, -0.12885714544156157]
[761, 0.3239785690961544]
[762, 0.02132174515081664]
[763, 0.017131286642737664]
[764, 0.16171955285056427]
[765, 0.1510957779924884]
[766, 0.3714361744874449]
[767, -0.16277033363640647]
[768, 0.00795977842112594]
[769, -0.48330512518105917]
[770, -0.29053266837107306]
[771, 0.05495273860214289]
[772, 0.29289177856758275]
[773, -0.35924770146610474]
[774, -0.35838087521372464]
[775, -0.21669695796558053]
[776, 0.08684030781208041]
[777, -0.18933847172180163]
[778, -0.01794223596875033]
[779, 0.35359740478720736]
[780, -0.15363060905487158]
[781, -0.4752596225486203]
[782, -0.4919568748250218]
[783, 0.41323725305363723]
