[0, -0.33700478549319846]
[1, 0.11721353302419724]
[2, 0.3445791065061764]
[3, 0.1536342890273017]
[4, -0.12805680485883686]
[5, -0.4477332622100456]
[6, -0.2961600487878502]
[7, 0.341987490640586]
[8, 0.3423404267174225]
[9, -0.022621612254054346]
[10, 0.06280516210096598]
[11, -0.1608691267475959]
[12, -0.08653899014457811]
[13, -0.10748488954211788]
[14, 0.061652093738201796]
[15, 0.13090742156426527]
[16, -0.2812930633180388]
[17, 0.18817451590831835]
[18, 0.08279654777309087]
[19, -0.25822797618044946]
[20, 0.47048117103361453]
[21, -0.13139657212161715]
[22, 0.48441677372035297]
[23, -0.11838132621742514]
[24, -0.3807480558402615]
[25, 0.4373757059820841]
[26, 0.4873235112474531]
[27, -0.26495846835558756]
[28, -0.4591750202185222]
[29, -0.20114163796809637]
[30, 0.4078656711130779]
[31, -0.19071518139532417]
[32, -0.20722839904043844]
[33, -0.06434843067166773]
[34, -0.042231865776752864]
[35, 0.35232244181317063]
[36, 0.4384117331570305]
[37, -0.40653740970377494]
[38, -0.21642285114335247]
[39, -0.021145381813428843]
[40, -0.06944500006876608]
[41, 0.06696055764395292]
[42, 0.09095032496794231]
[43, -0.15422567430279988]
[44, 0.09881344205014353]
[45, -0.07745931459574384]
[46, 0.3586615161857567]
[47, 0.36787904617919354]
[48, -0.4824787103220689]
[49, 0.037037981466014]
[50, -0.28181495357299124]
[51, -0.3475097813275607]
[52, 0.2639308174230419]
[53, 0.49876304500068325]
[54, -0.44665811760446805]
[55, -0.44463510128195194]
[56, -0.28221486684408714]
[57, -0.23959630616074523]
[58, 0.45330090437390214]
[59, -0.4542058290197538]
[60, 0.1661287171552155]
[61, -0.44323252764894994]
[62, -0.47792898460769706]
[63, 0.1596412869640269]
[64, -0.31632023208278626]
[65, -0.25539114988758127]
[66, 0.27767568432334255]
[67, 0.30147299788661885]
[68, -0.47136521719486857]
[69, 0.4173604031815986]
[70, -0.035753638100160634]
[71, -0.18244055313399532]
[72, -0.27421832763677134]
[73, -0.3950482573691806]
[74, -0.09180977750987451]
[75, 0.4737657166409852]
[76, 0.19050410816858188]
[77, -0.40489844572965195]
[78, 0.0362035757153355]
[79, -0.35391731176710806]
[80, 0.39806041054790076]
[81, 0.33540182013724895]
[82, 0.08300084774263872]
[83, -0.11607202623565116]
[84, -0.1776275227034556]
[85, -0.30594070084320857]
[86, -0.10256337810122107]
[87, -0.4520795461246565]
[88, 0.20737741392536702]
[89, 0.179616381228616]
[90, -0.027889610687605648]
[91, 0.1815832713516028]
[92, -0.2935759611037052]
[93, -0.39198775173083533]
[94, -0.02239767061913034]
[95, 0.05836945471944299]
[96, -0.433110010122005]
[97, -0.0027035779898204604]
[98, 0.4820299832679653]
[99, 0.03763433963047347]
[100, 0.13746677862664314]
[101, 0.15826842902600113]
[102, 0.4928376950301816]
[103, -0.3636045074585935]
[104, -0.43276331278038105]
[105, -0.2046513936860369]
[106, -0.03096986605896035]
[107, -0.48185939839805125]
[108, 0.21150157720170448]
[109, -0.2923018674307186]
[110, 0.38738965288193483]
[111, 0.01461235475334266]
[112, -0.1993082843960564]
[113, 0.3251525166417879]
[114, -0.4532206675503372]
[115, -0.42646704220547327]
[116, -0.023377783132459196]
[117, 0.4283843304927062]
[118, -0.2399224607793916]
[119, -0.16057165772562465]
[120, 0.00215329299240552]
[121, 0.0035605503550922846]
[122, -0.3985189410689379]
[123, 0.09155400586934204]
[124, -0.40679503431304276]
[125, 0.30925350744191193]
[126, -0.31274923680451494]
[127, 0.37776117168647905]
[128, 0.18239878113439034]
[129, 0.24480522457593767]
[130, 0.44957865258696583]
[131, -0.2088888924158323]
[132, 0.1758578884028792]
[133, -0.27129425342613456]
[134, 0.24075418942468607]
[135, 0.4460276825373066]
[136, -0.1553528494010048]
[137, 0.42085833877485046]
[138, 0.2776413228438088]
[139, -0.011287823018464538]
[140, 0.22341865490002732]
[141, -0.07801185586772397]
[142, 0.2159981064888028]
[143, -0.3113678668845221]
[144, 0.2117499566810639]
[145, 0.16892438936028042]
[146, 0.14286871829365122]
[147, 0.2793480360019335]
[148, -0.22054733113273095]
[149, -0.012606865351632135]
[150, -0.23925540914729337]
[151, -0.37533419120522415]
[152, -0.004819431247281125]
[153, 0.49704355498575725]
[154, 0.14321370401877376]
[155, 0.4354410667871824]
[156, 0.34433920173557575]
[157, -0.24674231019948512]
[158, 0.22031537920786526]
[159, -0.04839502035922982]
[160, 0.43653180688333415]
[161, 0.24006999845134913]
[162, 0.05718017974482181]
[163, 0.4808693926084908]
[164, -0.08302391668074882]
[165, -0.41396395111557815]
[166, -0.4540956575926097]
[167, 0.41964274263517]
[168, -0.4708984899441716]
[169, -0.40950307114747253]
[170, 0.17048845043464922]
[171, 0.1502619027926746]
[172, -0.08535253557541345]
[173, 0.4739878992357158]
[174, 0.1606288874444105]
[175, -0.07800113406250431]
[176, -0.3425185244025756]
[177, 0.2050291899179112]
[178, -0.11138174489289288]
[179, 0.061245191484045614]
[180, -0.20757745385544313]
[181, 0.4033119841635985]
[182, -0.3466836061361741]
[183, 0.2503494242378761]
[184, 0.2951671934638511]
[185, -0.2001428427092442]
[186, -0.009032439191343888]
[187, 0.13690456259659667]
[188, 0.02940898664379432]
[189, -0.41303682660106544]
[190, -0.383125133085063]
[191, -0.07757863820908961]
[192, 0.42128377976421816]
[193, -0.37421165050921756]
[194, -0.06953713776430337]
[195, 0.16370936429650307]
[196, -0.2322503985771195]
[197, -0.49162366965072757]
[198, -0.40583883188208336]
[199, -0.16535104146979585]
[200, -0.09812598410291662]
[201, 0.026271236076811366]
[202, -0.37752459950550876]
[203, -0.44082098359066413]
[204, 0.26223205948312955]
[205, -0.16135153706818872]
[206, 0.11109975649506065]
[207, 0.2537956673681814]
[208, 0.31833680991615754]
[209, 0.16715856620475267]
[210, 0.47806096272833565]
[211, -0.49652207151036887]
[212, -0.14387610417571328]
[213, 0.20930873353086854]
[214, 0.06356868747163491]
[215, -0.33217064198654844]
[216, 0.020929910815049246]
[217, 0.3917209240120799]
[218, 0.45447750189074154]
[219, -0.015235956671458939]
[220, 0.3634252024749909]
[221, -0.2171253475722209]
[222, -0.4813823143924858]
[223, 0.32533778810770086]
[224, 0.2648283802662649]
[225, 0.46373340622643233]
[226, 0.32956502280918043]
[227, 0.12942022758448457]
[228, 0.31619945801914195]
[229, -0.46608488919006774]
[230, -0.3467600742554954]
[231, 0.07887222787386083]
[232, 0.4763317712252516]
[233, -0.47109845075519385]
[234, -0.2182368742327664]
[235, 0.16331060729874913]
[236, 0.22698971224739195]
[237, 0.062122764760485616]
[238, 0.26641429683583573]
[239, -0.1812449640389262]
[240, -0.05536888681953267]
[241, -0.039374368075323574]
[242, -0.1372841122498264]
[243, 0.05525688569328291]
[244, 0.11638125842179947]
[245, 0.47055047040490405]
[246, -0.4231205501202374]
[247, -0.1796928961338673]
[248, 0.08951560172496709]
[249, -0.4552406788133634]
[250, -0.41569391140850565]
[251, -0.0354850039584913]
[252, -0.414161181597576]
[253, 0.05807299128017107]
[254, -0.45344435531460103]
[255, 0.48550144203087275]
[256, 0.48265275372670513]
[257, 0.030576900940924134]
[258, 0.20516047775219548]
[259, -0.43777318017303746]
[260, 0.2996868658426466]
[261, 0.3639758425113897]
[262, -0.47021443497207716]
[263, -0.3519309742172402]
[264, -0.2912140612812284]
[265, -0.31524230532547537]
[266, 0.4964140139150125]
[267, -0.1860734137987593]
[268, -0.13525891560146797]
[269, -0.4057027068487068]
[270, 0.3670023114908526]
[271, 0.07612152830144947]
[272, 0.32324139021488973]
[273, -0.2902125259345324]
[274, 0.36958526908337985]
[275, -0.35437179001616226]
[276, 0.319182447197778]
[277, 0.4362477036073964]
[278, 0.4363154700147841]
[279, 0.1682135432055959]
[280, -0.1772976069593044]
[281, 0.008474236841201965]
[282, 0.0448488776641941]
[283, -0.36126845931154017]
[284, -0.382901463270759]
[285, 0.04224970473146583]
[286, -0.3619373815116491]
[287, 0.18027432729274961]
[288, -0.049050960270007105]
[289, -0.2655850888493142]
[290, 0.05074838970095774]
[291, -0.24310767810706824]
[292, -0.2943705750538671]
[293, 0.00036934032721303023]
[294, -0.2462553770728293]
[295, 0.39299894812211056]
[296, 0.20183555148375298]
[297, 0.18975503026643092]
[298, -0.14078743291211582]
[299, -0.16940724184520095]
[300, -0.19562214046151116]
[301, 0.32743833341617024]
[302, 0.33654244036786973]
[303, 0.3304987966070555]
[304, 0.1713347649683611]
[305, 0.18929886000897067]
[306, -0.06059675490651206]
[307, 0.1021422921666243]
[308, -0.4978284574610269]
[309, 0.17208043922302962]
[310, 0.20081441349760898]
[311, 0.0986554381861936]
[312, -0.17526349645013717]
[313, 0.2245111043497492]
[314, -0.2292543070083296]
[315, -0.02941122783321437]
[316, -0.320826460890394]
[317, -0.20593210081491864]
[318, 0.07653195548353942]
[319, 0.12679925066108932]
[320, -0.2625110707198782]
[321, 0.16686532303708634]
[322, -0.4214517675606798]
[323, 0.3275253677942971]
[324, 0.08856261006649346]
[325, 0.08819012663940407]
[326, 0.2720214457008069]
[327, 0.13500206247187285]
[328, 0.4807763900307447]
[329, 0.27941124206365775]
[330, 0.36891926462128255]
[331, 0.38446135674007564]
[332, -0.34894711313597404]
[333, -0.27902889360740424]
[334, 0.3662090861607167]
[335, 0.1259960056351609]
[336, 0.07039175729326175]
[337, 0.07654768272478818]
[338, -0.10356186463699979]
[339, 0.2434223469276926]
[340, -0.1409770914171652]
[341, -0.2733515401424327]
[342, 0.4761081561477448]
[343, 0.4145945928164665]
[344, -0.38339623078625296]
[345, 0.46944282126259496]
[346, 0.41220630451634466]
[347, -0.06808058805172079]
[348, -0.05003386726146275]
[349, 0.40690057154993997]
[350, 0.08202298901800864]
[351, -0.17450724855797106]
[352, -0.22301835544244275]
[353, -0.23172157613203426]
[354, 0.41888400145230253]
[355, 0.09177910648177212]
[356, 0.13337631253000515]
[357, 0.31254120207198033]
[358, 0.02134087323405931]
[359, 0.29008615761497725]
[360, 0.16736539880481416]
[361, -0.4000133384649628]
[362, -0.05389705269174305]
[363, 0.3581703885522076]
[364, -0.33632233391382527]
[365, 0.29104000400160124]
[366, 0.1607843713232362]
[367, 0.4677984011600461]
[368, -0.4564157965721165]
[369, -0.452719235343256]
[370, 0.30827235240789574]
[371, 0.16919217655897567]
[372, 0.05683870672072833]
[373, -0.34266386385636505]
[374, -0.12157794308367764]
[375, 0.16571359895012883]
[376, -0.43076102029552366]
[377, 0.11984333141349768]
[378, -0.391019474316774]
[379, -0.13660615735469284]
[380, -0.2198310526001671]
[381, 0.13545504235629635]
[382, -0.09192639788106405]
[383, 0.15794042357447435]
[384, -0.11003020683764442]
[385, -0.3288827616010145]
[386, 0.09438054392724671]
[387, 0.4426257530120311]
[388, 0.3323870417693747]
[389, 0.22097035254180664]
[390, -0.343211669975796]
[391, -0.1535152283962814]
[392, 0.35791558065669005]
[393, -0.15183396356638368]
[394, 0.4602181268520823]
[395, -0.13091003070548746]
[396, -0.4534177238292749]
[397, 0.01243512780609024]
[398, 0.45059566189325895]
[399, -0.41486167069971225]
[400, 0.44948398514415244]
[401, 0.27614697129830945]
[402, -0.35983813215344884]
[403, -0.38586748223421263]
[404, 0.31806553731266407]
[405, 0.1509322231626804]
[406, -0.14591892507497495]
[407, 0.08994032295426346]
[408, -0.24062786205664033]
[409, -0.22964192914869275]
[410, -0.42833950735454906]
[411, 0.3751991081726912]
[412, -0.4691677043213224]
[413, -0.0721719824368543]
[414, -0.1945613922767474]
[415, -0.10008294330449174]
[416, -0.12228305165515807]
[417, -0.017420275161747933]
[418, -0.24383641514057086]
[419, -0.169104665567276]
[420, -0.46058213662620195]
[421, -0.23829486015201917]
[422, 0.00028011649423820284]
[423, -0.16318011593458026]
[424, -0.4696173003249038]
[425, 0.4474522970328938]
[426, 0.26900151198753686]
[427, -0.10442838603202997]
[428, -0.27825490845036993]
[429, -0.01702241522709358]
[430, -0.3980759158122149]
[431, -0.3941252393185344]
[432, -0.21256273735837272]
[433, 0.01888627321668035]
[434, -0.2768846867698317]
[435, 0.4901800036739523]
[436, -0.253698118640312]
[437, 0.07108234653156353]
[438, 0.3177295396093176]
[439, 0.4019758062813902]
[440, -0.2924157065029662]
[441, 0.3807946549729949]
[442, -0.35315922929747956]
[443, -0.2689426938879783]
[444, -0.41080958564619385]
[445, 0.3796461468862934]
[446, -0.3899216321374248]
[447, -0.49263048032535517]
[448, 0.33514612372896857]
[449, -0.30479272801168744]
[450, 0.2918688296985691]
[451, 0.3170563987587899]
[452, 0.14580081444066428]
[453, -0.3419776126355949]
[454, -0.15177223272944318]
[455, 0.22360875796518953]
[456, -0.23503355106262225]
[457, 0.04166412200311531]
[458, 0.47859495722517054]
[459, -0.003850337312819363]
[460, 0.22792034625189384]
[461, -0.2591984006222945]
[462, -0.4351325084363241]
[463, -0.019224493387428265]
[464, -0.17564013927316657]
[465, -0.21704200148037556]
[466, 0.4855477824331572]
[467, -0.12056893043108485]
[468, -0.23688602925032087]
[469, 0.17010576239007325]
[470, 0.24218303041986977]
[471, -0.14231159262958915]
[472, 0.30096787270749137]
[473, 0.34996200551263223]
[474, -0.03809081087624555]
[475, 0.271118532510485]
[476, -0.4621342258322011]
[477, -0.06523035757315387]
[478, -0.4798745463388847]
[479, 0.23336632729968054]
[480, 0.1528383865216092]
[481, -0.3356968143085296]
[482, -0.15980791877710743]
[483, -0.1311452092669606]
[484, -0.4787446370266727]
[485, 0.08878155839386992]
[486, -0.40464575203012243]
[487, 0.4621459859639595]
[488, -0.31977191758194423]
[489, 0.09153185801975394]
[490, -0.17583169028502832]
[491, -0.39905241735049113]
[492, -0.36759276351252246]
[493, -0.4779769641640529]
[494, -0.4277206276140624]
[495, 0.3242215896228574]
[496, 0.46364696259184535]
[497, -0.4789458816989709]
[498, 0.25585149634221216]
[499, -0.4342965810885201]
[500, 0.26184051616877113]
[501, 0.4446338081029434]
[502, 0.026603795222415405]
[503, 0.027904209327268004]
[504, -0.14845830974034524]
[505, -0.4779598413885603]
[506, 0.29886946720110474]
[507, 0.46105241116731177]
[508, -0.2925633311652295]
[509, 0.4315946618033266]
[510, -0.3169417327044243]
[511, -0.45856661881390237]
[512, -0.18277024003714015]
[513, -0.04233840225942409]
[514, 0.1022744704025298]
[515, -0.051716578226343124]
[516, -0.09672882801628913]
[517, -0.48098064167553733]
[518, -0.03404533957391109]
[519, 0.14555827554194922]
[520, -0.49100857028683265]
[521, -0.3575522545667241]
[522, 0.383494310382438]
[523, 0.08028032420185283]
[524, -0.14660238438507944]
[525, 0.39543364275402915]
[526, -0.3448783701546776]
[527, -0.07874150201327679]
[528, -0.24852911885332896]
[529, -0.44158790214062926]
[530, 0.2231450575160563]
[531, 0.23732070668115346]
[532, -0.0976943105903555]
[533, 0.1894852506464898]
[534, 0.4529945400572205]
[535, -0.1703656122977757]
[536, 0.2014199688092727]
[537, -0.400054147777259]
[538, -0.3657656512745543]
[539, 0.3712081590861498]
[540, -0.17425299280342]
[541, -0.477692949045354]
[542, 0.14290490233855246]
[543, -0.2847793403676303]
[544, 0.2031922916057155]
[545, -0.18476265281032656]
[546, -0.49341852850162715]
[547, -0.4090925917332021]
[548, 0.2603399635245012]
[549, 0.2784599123520767]
[550, 0.48521425455991507]
[551, -0.1450238052074172]
[552, 0.4681884187088018]
[553, 0.1273957502795855]
[554, 0.345050522110915]
[555, -0.12265372734409175]
[556, -0.25844352796168024]
[557, -0.023589000494065093]
[558, -0.20559336476539836]
[559, -0.33764311518445234]
[560, -0.024905530779316343]
[561, -0.10786193899471996]
[562, -0.32349016514530027]
[563, 0.365069530501431]
[564, 0.17813327311360194]
[565, -0.2275608411547907]
[566, -0.3696112155371907]
[567, -0.16395262043208314]
[568, -0.1762600832561837]
[569, 0.03907004465868369]
[570, 0.31642340700248617]
[571, 0.28885473643592385]
[572, 0.45798321146792575]
[573, 0.06828406723224634]
[574, 0.13170261683122997]
[575, -0.22179181728515485]
[576, -0.15147350233962098]
[577, -0.42025174273710264]
[578, 0.49436779626050265]
[579, -0.42718186886711296]
[580, -0.22162810526534393]
[581, -0.3265509432868099]
[582, -0.4273590335890387]
[583, -0.09240352914407646]
[584, 0.24355080794658868]
[585, -0.0861728484581602]
[586, -0.17714415427521768]
[587, 0.21432633415605284]
[588, -0.2700326265535572]
[589, -0.19711271289352694]
[590, -0.07037691443792282]
[591, -0.2460346409473969]
[592, 0.29570370877802643]
[593, -0.334139414346011]
[594, 0.2013984777757274]
[595, -0.027346054095456207]
[596, 0.3925621583407276]
[597, 0.3285557447523877]
[598, -0.4545402288925252]
[599, 0.31332348579237757]
[600, -0.030434127713580228]
[601, 0.11433446838225325]
[602, 0.012974430664834724]
[603, 0.09561255362477128]
[604, -0.46668243926402775]
[605, -0.22818329553263184]
[606, 0.16835915953824954]
[607, -0.12140628750755866]
[608, -0.08731385725005858]
[609, 0.1306444211180542]
[610, -0.19477258821192867]
[611, 0.45007115186942026]
[612, -0.11808402043120936]
[613, -0.1748665069508063]
[614, 0.36141169992579103]
[615, -0.2120050965612601]
[616, 0.25720824021209177]
[617, 0.3247968770581634]
[618, -0.19663369170338618]
[619, -0.47299080277096595]
[620, 0.2571595756131404]
[621, 0.06716666414402017]
[622, -0.2959086868529347]
[623, -0.0698612615290366]
[624, 0.018201346751968828]
[625, -0.26071909696421214]
[626, 0.11643958054622472]
[627, -0.37278415656131025]
[628, -0.2763118727631013]
[629, 0.11285700923058184]
[630, 0.34602610102645903]
[631, 0.4085618946171332]
[632, 0.2878409785187246]
[633, -0.3120235071951135]
[634, -0.36694761725351255]
[635, -0.22674402470794486]
[636, 0.35924878862362764]
[637, -0.4351612068128736]
[638, -0.15123918147201865]
[639, 0.08494280229404505]
[640, -0.49690268187785935]
[641, -0.10295188131096422]
[642, 0.12370626133480178]
[643, -0.4374999172655535]
[644, 0.4982498482219816]
[645, 0.15901381389971292]
[646, 0.15442084026863345]
[647, 0.13388660267692865]
[648, 0.3864374819719546]
[649, 0.3169328839445248]
[650, 0.3114018766208685]
[651, 0.2967244479614971]
[652, 0.24547223295171172]
[653, -0.3495693716741173]
[654, 0.20612098185552774]
[655, -0.36198662004621684]
[656, -0.11596957459863966]
[657, -0.13602885668425624]
[658, -0.3331611764485115]
[659, -0.1370190896214506]
[660, -0.22668066052482938]
[661, -0.11024174456915914]
[662, 0.46421294656721623]
[663, -0.3301035411992317]
[664, -0.3158324576954006]
[665, -0.35264636304540486]
[666, 0.2750287903260862]
[667, 0.08368916378879876]
[668, -0.49502400762312193]
[669, -0.3614418262792849]
[670, -0.06428040625434739]
[671, -0.28539077100019417]
[672, 0.287226342488228]
[673, -0.022193957396850705]
[674, 0.44263280858035137]
[675, -0.43726073392402554]
[676, -0.13676110834347377]
[677, 0.386323638711631]
[678, 0.028904745709960156]
[679, -0.2784653222295964]
[680, 0.2469671165679842]
[681, -0.32005576207606745]
[682, 0.4610669027312231]
[683, 0.10441056162533291]
[684, 0.022761358217593397]
[685, -0.3915086736823913]
[686, -0.290951804482675]
[687, 0.09010416437377555]
[688, -0.31935423137857777]
[689, 0.26106907367140586]
[690, 0.4978630705117447]
[691, -0.3026834872255292]
[692, 0.3495721165307579]
[693, -0.029979542080739274]
[694, 0.010798604151148194]
[695, 0.025011448031100003]
[696, 0.27081472809821017]
[697, 0.2892900236025685]
[698, 0.3943515243543253]
[699, 0.10675526357774512]
[700, 0.43649104398746497]
[701, 0.4055403102648698]
[702, 0.449675400455006]
[703, 0.17939218611772312]
[704, 0.3022550951205132]
[705, -0.46782180889240776]
[706, -0.0697396235758817]
[707, 0.11259740556460185]
[708, -0.31853232583426194]
[709, 0.19542916689667533]
[710, 0.07763455561661359]
[711, 0.33617688728344397]
[712, 0.39757851605475725]
[713, 0.14269810035134134]
[714, 0.19867548588285866]
[715, -0.2697228624743674]
[716, -0.3054901362717244]
[717, -0.13392030896616192]
[718, -0.3099458224046956]
[719, 0.06852320051558825]
[720, 0.440312785090044]
[721, -0.2418725023803131]
[722, -0.3337197391530865]
[723, -0.2988029955804906]
[724, 0.36285729340805595]
[725, 0.3016070467901595]
[726, -0.18337930737632702]
[727, 0.48228665401898074]
[728, 0.218963004372544]
[729, 0.40215735550326415]
[730, -0.2549188795816707]
[731, 0.1288439708956708]
[732, -0.462801322986239]
[733, 0.45821822191595185]
[734, 0.209627882791666]
[735, 0.31111839451343126]
[736, -0.2105101925162841]
[737, -0.4916102347379028]
[738, 0.3652122259653615]
[739, 0.2937108569787732]
[740, -0.018045057011553123]
[741, -0.13179318866465828]
[742, 0.11951060046951345]
[743, -0.0726185494547994]
[744, -0.15181539753932682]
[745, 0.4028871052023041]
[746, -0.47243636188034477]
[747, 0.2783726643084018]
[748, -0.11685966287772431]
[749, 0.3357211728279702]
[750, 0.011653363292134289]
[751, 0.302769501204911]
[752, 0.16292710901883412]
[753, -0.1427771376884731]
[754, -0.2809699228625514]
[755, 0.1521576392273073]
[756, 0.2271499590437447]
[757, 0.15488588987271779]
[758, -0.1926076238682366]
[759, -0.24808578428616657]
[760, -0.12885714544156157]
[761, 0.3239785690961544]
[762, 0.02132174515081664]
[763, 0.017131286642737664]
[764, 0.16171955285056427]
[765, 0.1510957779924884]
[766, 0.3714361744874449]
[767, -0.16277033363640647]
[768, 0.00795977842112594]
[769, -0.48330512518105917]
[770, -0.29053266837107306]
[771, 0.05495273860214289]
[772, 0.29289177856758275]
[773, -0.35924770146610474]
[774, -0.35838087521372464]
[775, -0.21669695796558053]
[776, 0.08684030781208041]
[777, -0.18933847172180163]
[778, -0.01794223596875033]
[779, 0.35359740478720736]
[780, -0.15363060905487158]
[781, -0.4752596225486203]
[782, -0.4919568748250218]
[783, 0.41323725305363723]
